{"learner":{"attributes":{"scikit_learn":"{\"_estimator_type\": \"regressor\"}"},"feature_names":["hour","weekday","month","season_dry","season_rainy","season_harmattan","temperature","is_rain_day","holiday_type_national"],"feature_types":["float","float","float","float","float","float","float","float","float"],"gradient_booster":{"model":{"cats":{"enc":[],"feature_segments":[],"sorted_idx":[]},"gbtree_model_param":{"num_parallel_tree":"1","num_trees":"300"},"iteration_indptr":[0,1,2,3,4,5,6,7,8,9,10,11,12,13,14,15,16,17,18,19,20,21,22,23,24,25,26,27,28,29,30,31,32,33,34,35,36,37,38,39,40,41,42,43,44,45,46,47,48,49,50,51,52,53,54,55,56,57,58,59,60,61,62,63,64,65,66,67,68,69,70,71,72,73,74,75,76,77,78,79,80,81,82,83,84,85,86,87,88,89,90,91,92,93,94,95,96,97,98,99,100,101,102,103,104,105,106,107,108,109,110,111,112,113,114,115,116,117,118,119,120,121,122,123,124,125,126,127,128,129,130,131,132,133,134,135,136,137,138,139,140,141,142,143,144,145,146,147,148,149,150,151,152,153,154,155,156,157,158,159,160,161,162,163,164,165,166,167,168,169,170,171,172,173,174,175,176,177,178,179,180,181,182,183,184,185,186,187,188,189,190,191,192,193,194,195,196,197,198,199,200,201,202,203,204,205,206,207,208,209,210,211,212,213,214,215,216,217,218,219,220,221,222,223,224,225,226,227,228,229,230,231,232,233,234,235,236,237,238,239,240,241,242,243,244,245,246,247,248,249,250,251,252,253,254,255,256,257,258,259,260,261,262,263,264,265,266,267,268,269,270,271,272,273,274,275,276,277,278,279,280,281,282,283,284,285,286,287,288,289,290,291,292,293,294,295,296,297,298,299,300],"tree_info":[0,0,0,0,0,0,0,0,0,0,0,0,0,0,0,0,0,0,0,0,0,0,0,0,0,0,0,0,0,0,0,0,0,0,0,0,0,0,0,0,0,0,0,0,0,0,0,0,0,0,0,0,0,0,0,0,0,0,0,0,0,0,0,0,0,0,0,0,0,0,0,0,0,0,0,0,0,0,0,0,0,0,0,0,0,0,0,0,0,0,0,0,0,0,0,0,0,0,0,0,0,0,0,0,0,0,0,0,0,0,0,0,0,0,0,0,0,0,0,0,0,0,0,0,0,0,0,0,0,0,0,0,0,0,0,0,0,0,0,0,0,0,0,0,0,0,0,0,0,0,0,0,0,0,0,0,0,0,0,0,0,0,0,0,0,0,0,0,0,0,0,0,0,0,0,0,0,0,0,0,0,0,0,0,0,0,0,0,0,0,0,0,0,0,0,0,0,0,0,0,0,0,0,0,0,0,0,0,0,0,0,0,0,0,0,0,0,0,0,0,0,0,0,0,0,0,0,0,0,0,0,0,0,0,0,0,0,0,0,0,0,0,0,0,0,0,0,0,0,0,0,0,0,0,0,0,0,0,0,0,0,0,0,0,0,0,0,0,0,0,0,0,0,0,0,0,0,0,0,0,0,0,0,0,0,0,0,0,0,0,0,0,0,0,0,0,0,0,0,0],"trees":[{"base_weights":[-9.089341E0,-1.7326365E4,1.7269936E4,-2.998386E4,-4.6916826E3,2.3962936E4,-1.6797812E4,-2.56096E4,-2.1455715E3,2.1064834E3,-2.5200367E4,3.3222785E4,-3.3847854E3,-1.1375582E4,-1.6323965E3,-2.5396775E4,-2.4026182E3,2.4473035E3,-1.6053887E3,-1.2541769E3,-2.2474263E3,2.6983303E4,4.23819E4,-8.22814E3,3.688433E3,-1.1095308E4,-1.9391647E3,-2.6073244E4,-1.1475376E3,4.6078076E3,-2.3511324E2,2.7423955E4,-9.086294E2,4.2886617E4,-9.517397E3,-8.1027695E3,-1.7351334E3,3.8049497E3,-1.2541562E3,-1.1884524E4,-4.0797345E2,-1.3279833E3,-1.2847839E3,3.3871085E2,1.6247662E2,-2.5584244E1,2.4114359E1,1.515371E3,1.1934684E3,2.0194258E3,2.427476E3,-5.0544864E2,-1.9730782E2,-3.7084677E2,-4.1757422E2,2.4812108E2,1.6970352E2,-6.206498E2,-5.7267615E2],"categories":[],"categories_nodes":[],"categories_segments":[],"categories_sizes":[],"default_left":[0,0,0,0,0,0,0,0,0,0,0,0,0,0,0,0,0,0,0,0,0,0,0,0,0,0,0,0,0,0,0,0,0,0,0,0,0,0,0,0,0,0,0,0,0,0,0,0,0,0,0,0,0,0,0,0,0,0,0],"id":0,"left_children":[1,3,5,7,9,11,13,15,-1,17,19,21,23,25,-1,27,-1,29,-1,-1,-1,31,33,35,37,39,-1,41,-1,43,45,47,-1,49,51,53,-1,55,-1,57,-1,-1,-1,-1,-1,-1,-1,-1,-1,-1,-1,-1,-1,-1,-1,-1,-1,-1,-1],"loss_changes":[8.389389E12,2.2392666E12,3.200371E12,3.944591E11,9.77258E11,2.970568E12,1.9772729E11,2.3755227E10,0E0,6.147321E10,2.8985262E9,4.996454E11,1.017084E11,1.2774474E10,0E0,7.9759933E9,0E0,3.0218154E10,0E0,0E0,0E0,1.0426673E11,9.337307E10,5.5670866E9,4.14174E9,3.8488965E9,0E0,6.160384E7,0E0,8.476156E9,4.619529E8,5.2215153E10,0E0,4.7763685E10,7.546163E7,2.3742054E8,0E0,5.552824E8,0E0,1.6303718E8,0E0,0E0,0E0,0E0,0E0,0E0,0E0,0E0,0E0,0E0,0E0,0E0,0E0,0E0,0E0,0E0,0E0,0E0,0E0],"parents":[2147483647,0,0,1,1,2,2,3,3,4,4,5,5,6,6,7,7,9,9,10,10,11,11,12,12,13,13,15,15,17,17,21,21,22,22,23,23,24,24,25,25,27,27,29,29,30,30,31,31,33,33,34,34,35,35,37,37,39,39],"right_children":[2,4,6,8,10,12,14,16,-1,18,20,22,24,26,-1,28,-1,30,-1,-1,-1,32,34,36,38,40,-1,42,-1,44,46,48,-1,50,52,54,-1,56,-1,58,-1,-1,-1,-1,-1,-1,-1,-1,-1,-1,-1,-1,-1,-1,-1,-1,-1,-1,-1],"split_conditions":[7.010962E-2,-7.9767627E-1,1.5164194E0,1.7235993E0,1.7235993E0,1.7235993E0,1.7235993E0,1.11081085E1,-2.1455715E3,1.11081085E1,1.11081085E1,9.378955E-1,9.378955E-1,1.11081085E1,-1.6323965E3,-1.7289384E-1,-2.4026182E3,8.4110475E-1,-1.6053887E3,-1.2541769E3,-2.2474263E3,1.11081085E1,1.11081085E1,1.11081085E1,1.11081085E1,-1.7289384E-1,-1.9391647E3,8.4110475E-1,-1.1475376E3,1.7237297E0,7.176959E-1,8.4110475E-1,-9.086294E2,5.67294E-1,5.67294E-1,-1.5155818E-1,-1.7351334E3,1.0825264E0,-1.2541562E3,8.4110475E-1,-4.0797345E2,-1.3279833E3,-1.2847839E3,3.3871085E2,1.6247662E2,-2.5584244E1,2.4114359E1,1.515371E3,1.1934684E3,2.0194258E3,2.427476E3,-5.0544864E2,-1.9730782E2,-3.7084677E2,-4.1757422E2,2.4812108E2,1.6970352E2,-6.206498E2,-5.7267615E2],"split_indices":[0,0,0,7,7,7,7,8,0,8,8,0,0,8,0,6,0,4,0,0,0,8,8,8,8,6,0,4,0,5,2,4,0,6,6,2,0,0,0,4,0,0,0,0,0,0,0,0,0,0,0,0,0,0,0,0,0,0,0],"split_type":[0,0,0,0,0,0,0,0,0,0,0,0,0,0,0,0,0,0,0,0,0,0,0,0,0,0,0,0,0,0,0,0,0,0,0,0,0,0,0,0,0,0,0,0,0,0,0,0,0,0,0,0,0,0,0,0,0,0,0],"sum_hessian":[2.8035E4,1.4002E4,1.4033E4,6.994E3,7.008E3,1.1729E4,2.304E3,5.228E3,1.766E3,5.264E3,1.744E3,8.762E3,2.967E3,1.718E3,5.86E2,5.181E3,4.7E1,5.213E3,5.1E1,1.736E3,8E0,5.214E3,3.548E3,1.761E3,1.206E3,1.702E3,1.6E1,4.051E3,1.13E3,2.887E3,2.326E3,5.164E3,5E1,3.514E3,3.4E1,1.754E3,7E0,1.202E3,4E0,1.339E3,3.63E2,1.74E3,2.311E3,1.111E3,1.776E3,1.679E3,6.47E2,2.847E3,2.317E3,2.444E3,1.07E3,3E1,4E0,4.75E2,1.279E3,3.12E2,8.9E2,5.89E2,7.5E2],"tree_param":{"num_deleted":"0","num_feature":"9","num_nodes":"59","size_leaf_vector":"1"}},{"base_weights":[9.80436E1,-1.63898E4,1.6547352E4,-2.848201E4,-4.4352095E3,2.2999373E4,-1.5998677E4,-2.4378266E4,-2.0338466E3,2.1788792E3,-2.4049219E4,3.1672809E4,-3.3826504E3,-1.0870855E4,-1.5547631E3,-2.4141463E4,-2.2940544E3,2.4847598E3,-1.5325498E3,-1.1972374E3,-2.1013752E3,2.5785084E4,4.0398277E4,-8.015446E3,3.5417158E3,-1.0584665E4,-1.8163496E3,-2.4761824E4,-1.0962191E3,4.534752E3,-9.399485E1,2.6183541E4,-8.2842755E2,4.0858355E4,-8.678896E3,-7.881027E3,-1.6556234E3,3.657124E3,-1.2039901E3,-1.14218955E4,-3.888252E2,-1.2602139E3,-1.2202805E3,1.599384E2,3.269996E2,-1.1855504E1,2.7103288E0,1.4427318E3,1.1418304E3,1.9265598E3,2.3018933E3,-4.7266855E2,-1.7445619E2,-3.617144E2,-4.0040268E2,2.5665012E2,1.577952E2,-6.0146375E2,-5.474956E2],"categories":[],"categories_nodes":[],"categories_segments":[],"categories_sizes":[],"default_left":[0,0,0,0,0,0,0,0,0,0,0,0,0,0,0,0,0,0,0,0,0,0,0,0,0,0,0,0,0,0,0,0,0,0,0,0,0,0,0,0,0,0,0,0,0,0,0,0,0,0,0,0,0,0,0,0,0,0,0],"id":1,"left_children":[1,3,5,7,9,11,13,15,-1,17,19,21,23,25,-1,27,-1,29,-1,-1,-1,31,33,35,37,39,-1,41,-1,43,45,47,-1,49,51,53,-1,55,-1,57,-1,-1,-1,-1,-1,-1,-1,-1,-1,-1,-1,-1,-1,-1,-1,-1,-1,-1,-1],"loss_changes":[7.651208E12,2.036543E12,2.9658139E12,3.4952236E11,9.193107E11,2.697012E12,1.805752E11,2.5589187E10,0E0,5.329888E10,2.34999E9,4.5463844E11,9.360333E10,1.2335645E10,0E0,6.5926595E9,0E0,2.7764738E10,0E0,0E0,0E0,8.986008E10,8.100879E10,5.635932E9,3.817726E9,3.973841E9,0E0,2.2806528E7,0E0,7.8177444E9,4.936824E7,4.627602E10,0E0,4.088398E10,1.0367386E8,8.501658E7,0E0,8.4633805E8,0E0,2.492498E8,0E0,0E0,0E0,0E0,0E0,0E0,0E0,0E0,0E0,0E0,0E0,0E0,0E0,0E0,0E0,0E0,0E0,0E0,0E0],"parents":[2147483647,0,0,1,1,2,2,3,3,4,4,5,5,6,6,7,7,9,9,10,10,11,11,12,12,13,13,15,15,17,17,21,21,22,22,23,23,24,24,25,25,27,27,29,29,30,30,31,31,33,33,34,34,35,35,37,37,39,39],"right_children":[2,4,6,8,10,12,14,16,-1,18,20,22,24,26,-1,28,-1,30,-1,-1,-1,32,34,36,38,40,-1,42,-1,44,46,48,-1,50,52,54,-1,56,-1,58,-1,-1,-1,-1,-1,-1,-1,-1,-1,-1,-1,-1,-1,-1,-1,-1,-1,-1,-1],"split_conditions":[7.010962E-2,-7.9767627E-1,1.5164194E0,1.7235993E0,1.7235993E0,1.7235993E0,1.7235993E0,1.11081085E1,-2.0338466E3,1.11081085E1,1.11081085E1,9.378955E-1,9.378955E-1,1.11081085E1,-1.5547631E3,2.2700121E0,-2.2940544E3,8.4110475E-1,-1.5325498E3,-1.1972374E3,-2.1013752E3,1.11081085E1,1.11081085E1,1.11081085E1,1.11081085E1,2.2700121E0,-1.8163496E3,8.4110475E-1,-1.0962191E3,2.2700121E0,-3.6378333E-1,8.4110475E-1,-8.2842755E2,5.67294E-1,5.67294E-1,2.1474059E-1,-1.6556234E3,1.0825264E0,-1.2039901E3,8.4110475E-1,-3.888252E2,-1.2602139E3,-1.2202805E3,1.599384E2,3.269996E2,-1.1855504E1,2.7103288E0,1.4427318E3,1.1418304E3,1.9265598E3,2.3018933E3,-4.7266855E2,-1.7445619E2,-3.617144E2,-4.0040268E2,2.5665012E2,1.577952E2,-6.0146375E2,-5.474956E2],"split_indices":[0,0,0,7,7,7,7,8,0,8,8,0,0,8,0,3,0,4,0,0,0,8,8,8,8,3,0,4,0,3,0,4,0,6,6,0,0,0,0,4,0,0,0,0,0,0,0,0,0,0,0,0,0,0,0,0,0,0,0],"split_type":[0,0,0,0,0,0,0,0,0,0,0,0,0,0,0,0,0,0,0,0,0,0,0,0,0,0,0,0,0,0,0,0,0,0,0,0,0,0,0,0,0,0,0,0,0,0,0,0,0,0,0,0,0,0,0,0,0,0,0],"sum_hessian":[2.8209E4,1.4088E4,1.4121E4,7.003E3,7.085E3,1.1785E4,2.336E3,5.242E3,1.761E3,5.299E3,1.786E3,8.869E3,2.916E3,1.745E3,5.91E2,5.187E3,5.5E1,5.251E3,4.8E1,1.778E3,8E0,5.298E3,3.571E3,1.747E3,1.169E3,1.727E3,1.8E1,4.045E3,1.142E3,2.925E3,2.326E3,5.249E3,4.9E1,3.538E3,3.3E1,1.739E3,8E0,1.165E3,4E0,1.328E3,3.99E2,1.773E3,2.272E3,1.757E3,1.168E3,1.183E3,1.143E3,2.915E3,2.334E3,2.447E3,1.091E3,2.8E1,5E0,2.95E2,1.444E3,2.93E2,8.72E2,5.7E2,7.58E2],"tree_param":{"num_deleted":"0","num_feature":"9","num_nodes":"59","size_leaf_vector":"1"}},{"base_weights":[-3.7937927E1,-1.5617866E4,1.5462402E4,-2.7007762E4,-4.269523E3,2.1611053E4,-1.5024912E4,-2.313606E4,-3.8649547E4,2.027204E3,-2.2782967E4,2.9975969E4,-3.090772E3,-1.0153428E4,-2.9442838E4,-2.0524764E4,-2.9490227E4,-1.8426823E3,-2.1511482E3,5.803332E3,-7.6413677E3,-1.00206476E3,-1.460479E3,3.5193535E4,1.6878281E4,6.6308246E2,-1.1926864E4,-6.9403115E3,-1.818838E4,-1.3598607E3,-1.7531067E3,-1.0601411E3,-9.0283673E2,-1.5015631E3,-1.3709634E3,7.9074326E3,3.1769553E3,-8.619995E3,-2.1128186E2,2.9258752E4,4.406041E4,1.2053332E4,2.3951229E4,-3.8489407E3,7.4710415E3,-7.9740564E2,-5.990585E3,-7.743375E3,-2.0225504E2,-9.449487E2,-7.821261E2,3.2591263E2,4.9962735E2,1.6566351E2,1.5380519E2,-3.6364868E2,-4.8254166E2,1.6070897E3,1.2913673E3,2.0821694E3,2.4688884E3,5.353599E2,8.407272E2,1.0976167E3,1.4267169E3,-2.1396121E2,-1.7954002E2,4.39381E2,3.495712E2,-2.5417549E2,-3.137585E2,-4.1446664E2,-3.665794E2],"categories":[],"categories_nodes":[],"categories_segments":[],"categories_sizes":[],"default_left":[0,0,0,0,0,0,0,0,0,0,0,0,0,0,0,0,0,0,0,0,0,0,0,0,0,0,0,0,0,0,0,0,0,0,0,0,0,0,0,0,0,0,0,0,0,0,0,0,0,0,0,0,0,0,0,0,0,0,0,0,0,0,0,0,0,0,0,0,0,0,0,0,0],"id":2,"left_children":[1,3,5,7,9,11,13,15,17,19,21,23,25,27,29,31,33,-1,-1,35,37,-1,-1,39,41,43,45,47,49,-1,-1,-1,-1,-1,-1,51,53,55,-1,57,59,61,63,65,67,-1,69,71,-1,-1,-1,-1,-1,-1,-1,-1,-1,-1,-1,-1,-1,-1,-1,-1,-1,-1,-1,-1,-1,-1,-1,-1,-1],"loss_changes":[6.7898505E12,1.8123187E12,2.6423268E12,3.1453033E11,8.189793E11,2.4236408E12,1.6588115E11,8.657227E10,1.2119966E10,1.9146505E11,3.0830428E10,5.981838E11,9.845471E10,4.5570277E10,6.5798144E9,5.8542E9,8.885371E8,0E0,0E0,2.0814029E10,4.8874045E9,0E0,0E0,3.2839408E11,8.495956E10,6.4044376E10,2.103051E10,2.912174E9,6.1793894E8,0E0,0E0,0E0,0E0,0E0,0E0,5.9974533E9,1.2890112E7,1.5183299E9,0E0,3.6327653E10,3.0202659E10,9.35048E9,8.644723E9,1.2391834E8,4.6329856E8,0E0,6.077235E7,1.618002E8,0E0,0E0,0E0,0E0,0E0,0E0,0E0,0E0,0E0,0E0,0E0,0E0,0E0,0E0,0E0,0E0,0E0,0E0,0E0,0E0,0E0,0E0,0E0,0E0,0E0],"parents":[2147483647,0,0,1,1,2,2,3,3,4,4,5,5,6,6,7,7,8,8,9,9,10,10,11,11,12,12,13,13,14,14,15,15,16,16,19,19,20,20,23,23,24,24,25,25,26,26,27,27,28,28,35,35,36,36,37,37,39,39,40,40,41,41,42,42,43,43,44,44,46,46,47,47],"right_children":[2,4,6,8,10,12,14,16,18,20,22,24,26,28,30,32,34,-1,-1,36,38,-1,-1,40,42,44,46,48,50,-1,-1,-1,-1,-1,-1,52,54,56,-1,58,60,62,64,66,68,-1,70,72,-1,-1,-1,-1,-1,-1,-1,-1,-1,-1,-1,-1,-1,-1,-1,-1,-1,-1,-1,-1,-1,-1,-1,-1,-1],"split_conditions":[7.010962E-2,-7.9767627E-1,1.5164194E0,1.7235993E0,1.7235993E0,1.7235993E0,1.7235993E0,9.948937E-1,9.948937E-1,9.948937E-1,9.948937E-1,9.948937E-1,9.948937E-1,9.948937E-1,9.948937E-1,2.2700121E0,2.2700121E0,-1.8426823E3,-2.1511482E3,8.4110475E-1,2.2700121E0,-1.00206476E3,-1.460479E3,9.378955E-1,9.378955E-1,9.378955E-1,9.378955E-1,2.2700121E0,2.2700121E0,-1.3598607E3,-1.7531067E3,-1.0601411E3,-9.0283673E2,-1.5015631E3,-1.3709634E3,2.2700121E0,-5.033196E-1,8.4110475E-1,-2.1128186E2,8.4110475E-1,5.67294E-1,2.2700121E0,5.67294E-1,-5.033196E-1,1.0825264E0,-7.9740564E2,1.0825264E0,8.4110475E-1,-2.0225504E2,-9.449487E2,-7.821261E2,3.2591263E2,4.9962735E2,1.6566351E2,1.5380519E2,-3.6364868E2,-4.8254166E2,1.6070897E3,1.2913673E3,2.0821694E3,2.4688884E3,5.353599E2,8.407272E2,1.0976167E3,1.4267169E3,-2.1396121E2,-1.7954002E2,4.39381E2,3.495712E2,-2.5417549E2,-3.137585E2,-4.1446664E2,-3.665794E2],"split_indices":[0,0,0,7,7,7,7,1,1,1,1,1,1,1,1,3,3,0,0,4,3,0,0,0,0,0,0,3,3,0,0,0,0,0,0,3,1,4,0,4,6,3,6,1,0,0,0,4,0,0,0,0,0,0,0,0,0,0,0,0,0,0,0,0,0,0,0,0,0,0,0,0,0],"split_type":[0,0,0,0,0,0,0,0,0,0,0,0,0,0,0,0,0,0,0,0,0,0,0,0,0,0,0,0,0,0,0,0,0,0,0,0,0,0,0,0,0,0,0,0,0,0,0,0,0,0,0,0,0,0,0,0,0,0,0,0,0,0,0,0,0,0,0,0,0,0,0,0,0],"sum_hessian":[2.8114E4,1.4021E4,1.4093E4,6.997E3,7.024E3,1.1728E4,2.365E3,5.253E3,1.744E3,5.242E3,1.782E3,8.761E3,2.967E3,1.769E3,5.96E2,3.726E3,1.527E3,1.243E3,5.01E2,3.77E3,1.472E3,1.252E3,5.3E2,6.264E3,2.497E3,2.083E3,8.84E2,1.265E3,5.04E2,4.3E2,1.66E2,2.917E3,8.09E2,1.2E3,3.27E2,2.092E3,1.678E3,1.143E3,3.29E2,3.755E3,2.509E3,1.486E3,1.011E3,1.253E3,8.3E2,5.26E2,3.58E2,9.89E2,2.76E2,3.89E2,1.15E2,1.258E3,8.34E2,7E2,9.78E2,4.99E2,6.44E2,2.036E3,1.719E3,1.731E3,7.78E2,1.161E3,3.25E2,7.08E2,3.03E2,4.64E2,7.89E2,2.17E2,6.13E2,9E1,2.68E2,4.17E2,5.72E2],"tree_param":{"num_deleted":"0","num_feature":"9","num_nodes":"73","size_leaf_vector":"1"}},{"base_weights":[-4.4266186E1,6.0723E3,-1.8250121E4,9.991093E3,-3.6494158E3,-1.5577256E4,-2.4675795E4,1.0272875E4,-1.2058544E3,-3.2828708E3,-1.580521E3,-1.5502403E4,-1.8934446E3,-1.2253506E3,-2.1818572E3,9.105441E3,7.20269E2,-4.286243E3,2.439487E2,-1.5870837E4,-7.6411365E2,9.991675E3,8.431851E3,-3.6839275E3,-4.728877E3,6.6225116E2,-1.6471417E2,-7.503091E2,-1.6128963E4,4.6752536E2,5.2107153E2,4.054504E2,4.4425583E2,-1.7291206E2,-2.059318E2,-2.1034312E2,-2.4891399E2,2.3561644E1,4.3669044E1,6.113994E0,-2.3083773E1,-8.911225E2,-7.8340546E2],"categories":[],"categories_nodes":[],"categories_segments":[],"categories_sizes":[],"default_left":[0,0,0,0,0,0,0,0,0,0,0,0,0,0,0,0,0,0,0,0,0,0,0,0,0,0,0,0,0,0,0,0,0,0,0,0,0,0,0,0,0,0,0],"id":3,"left_children":[1,3,5,7,9,11,13,15,-1,17,-1,19,-1,-1,-1,21,-1,23,25,27,-1,29,31,33,35,37,39,-1,41,-1,-1,-1,-1,-1,-1,-1,-1,-1,-1,-1,-1,-1,-1],"loss_changes":[3.125799E12,8.005007E11,1.2085363E11,1.4417383E11,6.176921E10,7.7358694E9,5.561647E9,7.152599E10,0E0,2.109177E10,0E0,1.6082534E8,0E0,0E0,0E0,6.830883E9,0E0,1.219625E9,2.25927E8,1.6728064E8,0E0,1.2794593E9,8.9204326E8,1.7902797E8,3.2679526E8,2.592368E7,5.707273E7,0E0,8.126136E8,0E0,0E0,0E0,0E0,0E0,0E0,0E0,0E0,0E0,0E0,0E0,0E0,0E0,0E0],"parents":[2147483647,0,0,1,1,2,2,3,3,4,4,5,5,6,6,7,7,9,9,11,11,15,15,17,17,18,18,19,19,21,21,22,22,23,23,24,24,25,25,26,26,28,28],"right_children":[2,4,6,8,10,12,14,16,-1,18,-1,20,-1,-1,-1,22,-1,24,26,28,-1,30,32,34,36,38,40,-1,42,-1,-1,-1,-1,-1,-1,-1,-1,-1,-1,-1,-1,-1,-1],"split_conditions":[1.7235993E0,9.948937E-1,9.948937E-1,1.11081085E1,1.11081085E1,1.11081085E1,1.11081085E1,2.2700121E0,-1.2058544E3,2.2700121E0,-1.580521E3,-5.033196E-1,-1.8934446E3,-1.2253506E3,-2.1818572E3,8.4110475E-1,7.20269E2,8.4110475E-1,-1.0208123E0,-1.5155818E-1,-7.6411365E2,-5.033196E-1,4.2794454E-1,1.58695E0,-1.5155818E-1,1.4942982E0,1.4942982E0,-7.503091E2,1.3819318E-1,4.6752536E2,5.2107153E2,4.054504E2,4.4425583E2,-1.7291206E2,-2.059318E2,-2.1034312E2,-2.4891399E2,2.3561644E1,4.3669044E1,6.113994E0,-2.3083773E1,-8.911225E2,-7.8340546E2],"split_indices":[7,1,1,8,8,8,8,3,0,3,0,1,0,0,0,4,0,4,2,2,0,1,2,2,2,1,1,0,2,0,0,0,0,0,0,0,0,0,0,0,0,0,0],"split_type":[0,0,0,0,0,0,0,0,0,0,0,0,0,0,0,0,0,0,0,0,0,0,0,0,0,0,0,0,0,0,0,0,0,0,0,0,0,0,0,0,0,0,0],"sum_hessian":[2.8068E4,2.101E4,7.058E3,1.4974E4,6.036E3,4.987E3,2.071E3,1.4852E4,1.22E2,5.959E3,7.7E1,4.972E3,1.5E1,2.055E3,1.6E1,1.1583E4,3.269E3,4.639E3,1.32E3,1.833E3,3.139E3,4.996E3,6.587E3,1.969E3,2.67E3,6.52E2,6.68E2,4.35E2,1.398E3,2.014E3,2.982E3,3.858E3,2.729E3,1.302E3,6.67E2,8.69E2,1.801E3,3.44E2,3.08E2,3.4E2,3.28E2,2.91E2,1.107E3],"tree_param":{"num_deleted":"0","num_feature":"9","num_nodes":"43","size_leaf_vector":"1"}},{"base_weights":[-1.7232951E2,5.6974663E3,-1.7363068E4,-5.3225146E3,1.1896964E4,-2.3584922E4,-1.2092693E4,-2.0618425E3,-1.3359152E4,1.5806387E4,1.9415168E3,-2.1442764E4,-2.8661465E4,-9.126847E3,-1.9037605E4,-1.7619563E3,-1.5203553E3,-1.2951374E4,-1.711889E3,1.1486094E4,2.0633818E4,-1.6396105E3,6.1132485E3,-2.1370791E4,-1.9718163E3,-1.4256041E3,-2.151168E3,-9.041018E3,-1.5702638E3,-9.4457E2,-1.7785791E3,-1.0236699E3,-2.7134731E3,-1.2472444E4,-7.072546E2,1.5613683E3,1.553325E4,2.083108E4,-7.8926227E2,-1.0317146E4,1.911975E3,6.3098535E3,-1.1386437E3,-1.0825018E3,-1.011173E3,-9.302514E3,-8.878423E3,3.1685312E0,-6.0403076E1,-1.1251139E2,-1.778449E2,-6.4206464E2,-5.824387E2,1.01855385E2,6.2363605E1,7.97587E2,-9.7374817E2,9.717267E2,1.1487386E3,-4.5140952E2,-5.8008356E2,1.1144246E2,-1.3234373E3,2.5610733E2,4.0205234E2,-4.8355963E2,-4.531412E2,-4.2180612E2,-4.541819E2],"categories":[],"categories_nodes":[],"categories_segments":[],"categories_sizes":[],"default_left":[0,0,0,0,0,0,0,0,0,0,0,0,0,0,0,0,0,0,0,0,0,0,0,0,0,0,0,0,0,0,0,0,0,0,0,0,0,0,0,0,0,0,0,0,0,0,0,0,0,0,0,0,0,0,0,0,0,0,0,0,0,0,0,0,0,0,0,0,0],"id":4,"left_children":[1,3,5,7,9,11,13,15,17,19,21,23,25,27,29,31,-1,33,-1,35,37,39,41,43,-1,-1,-1,45,-1,-1,-1,47,49,51,-1,53,55,57,-1,59,61,63,-1,-1,-1,65,67,-1,-1,-1,-1,-1,-1,-1,-1,-1,-1,-1,-1,-1,-1,-1,-1,-1,-1,-1,-1,-1,-1],"loss_changes":[2.829305E12,1.4280534E12,2.3374778E11,1.971901E11,5.206029E11,3.496765E10,7.945637E10,4.5465817E10,1.8048614E10,2.0008403E11,5.6376762E10,2.1423063E9,8.5006746E8,4.8998973E9,2.1224489E9,3.7204306E9,0E0,1.0424484E9,0E0,2.0366216E11,3.290851E10,6.261314E10,1.0042466E10,2.9845094E8,0E0,0E0,0E0,3.2292864E7,0E0,0E0,0E0,5.985938E8,8.964936E8,3.1524454E8,0E0,2.1711846E8,5.308193E10,1.3058441E10,0E0,8.721162E8,1.3027071E10,3.5200696E9,0E0,0E0,0E0,2.039808E6,7.65952E7,0E0,0E0,0E0,0E0,0E0,0E0,0E0,0E0,0E0,0E0,0E0,0E0,0E0,0E0,0E0,0E0,0E0,0E0,0E0,0E0,0E0,0E0],"parents":[2147483647,0,0,1,1,2,2,3,3,4,4,5,5,6,6,7,7,8,8,9,9,10,10,11,11,12,12,13,13,14,14,15,15,17,17,19,19,20,20,21,21,22,22,23,23,27,27,31,31,32,32,33,33,35,35,36,36,37,37,39,39,40,40,41,41,45,45,46,46],"right_children":[2,4,6,8,10,12,14,16,18,20,22,24,26,28,30,32,-1,34,-1,36,38,40,42,44,-1,-1,-1,46,-1,-1,-1,48,50,52,-1,54,56,58,-1,60,62,64,-1,-1,-1,66,68,-1,-1,-1,-1,-1,-1,-1,-1,-1,-1,-1,-1,-1,-1,-1,-1,-1,-1,-1,-1,-1,-1],"split_conditions":[1.7235993E0,-1.7289384E-1,-1.7289384E-1,9.948937E-1,9.948937E-1,9.948937E-1,9.948937E-1,1.11081085E1,1.11081085E1,1.1429956E0,1.1429956E0,1.11081085E1,1.11081085E1,1.11081085E1,1.11081085E1,1.7237297E0,-1.5203553E3,1.2971987E0,-1.711889E3,-7.310609E-1,1.11081085E1,-7.310609E-1,1.11081085E1,4.954893E-1,-1.9718163E3,-1.4256041E3,-2.151168E3,-5.033196E-1,-1.5702638E3,-9.4457E2,-1.7785791E3,-4.4130954E-1,1.58695E0,4.2794454E-1,-7.072546E2,-5.033196E-1,1.11081085E1,2.2700121E0,-7.8926227E2,-1.0208123E0,1.11081085E1,2.2700121E0,-1.1386437E3,-1.0825018E3,-1.011173E3,1.3819318E-1,-3.915167E-3,3.1685312E0,-6.0403076E1,-1.1251139E2,-1.778449E2,-6.4206464E2,-5.824387E2,1.01855385E2,6.2363605E1,7.97587E2,-9.7374817E2,9.717267E2,1.1487386E3,-4.5140952E2,-5.8008356E2,1.1144246E2,-1.3234373E3,2.5610733E2,4.0205234E2,-4.8355963E2,-4.531412E2,-4.2180612E2,-4.541819E2],"split_indices":[7,6,6,1,1,1,1,8,8,6,6,8,8,8,8,5,0,2,0,2,8,2,8,1,0,0,0,1,0,0,0,2,2,2,0,1,8,3,0,2,8,3,0,0,0,2,1,0,0,0,0,0,0,0,0,0,0,0,0,0,0,0,0,0,0,0,0,0,0],"split_type":[0,0,0,0,0,0,0,0,0,0,0,0,0,0,0,0,0,0,0,0,0,0,0,0,0,0,0,0,0,0,0,0,0,0,0,0,0,0,0,0,0,0,0,0,0,0,0,0,0,0,0,0,0,0,0,0,0,0,0,0,0,0,0,0,0,0,0,0,0],"sum_hessian":[2.8037E4,2.0901E4,7.136E3,7.525E3,1.3376E4,3.271E3,3.865E3,5.354E3,2.171E3,9.604E3,3.772E3,2.304E3,9.67E2,2.71E3,1.155E3,5.299E3,5.5E1,2.131E3,4E1,5.07E3,4.534E3,2.03E3,1.742E3,2.297E3,7E0,9.6E2,7E0,2.701E3,9E0,1.147E3,8E0,2.985E3,2.314E3,1.529E3,6.02E2,1.469E3,3.601E3,4.51E3,2.4E1,5.89E2,1.441E3,1.731E3,1.1E1,1.833E3,4.64E2,1.014E3,1.687E3,4.33E2,2.552E3,1.496E3,8.18E2,1.046E3,4.83E2,5.82E2,8.87E2,3.559E3,4.2E1,2.737E3,1.773E3,2.98E2,2.91E2,1.426E3,1.5E1,1.029E3,7.02E2,3.84E2,6.3E2,5.48E2,1.139E3],"tree_param":{"num_deleted":"0","num_feature":"9","num_nodes":"69","size_leaf_vector":"1"}},{"base_weights":[1.1073883E2,-1.4746172E4,1.4912928E4,-2.5232098E4,-4.372316E3,2.0623217E4,-1.3886799E4,-2.3277482E4,-3.0082672E4,2.5952793E3,-9.407739E3,2.955965E4,1.4295704E4,-1.134292E4,-2.0005258E4,-1.9767275E4,-2.5721572E4,-2.7150268E4,-3.2116557E4,5.9346685E3,-5.970783E3,-6.619136E3,-1.6366483E4,3.422239E4,1.7790803E4,8.773257E3,2.2533326E4,-6.754733E3,-1.4494792E4,-1.6058096E4,-2.269451E4,-2.0900291E4,-8.9777606E2,-1.2803523E3,-1.9023236E3,-1.4070204E3,-1.2777557E3,-1.596565E3,-2.179341E3,6.1073506E3,-1.1367723E3,-5.7738745E3,-1.2777634E3,-6.4485513E3,-1.3513378E3,-1.6166812E4,-1.5877943E3,2.8857293E4,4.1966383E4,1.3441001E4,2.4046785E4,1.2563599E4,-4.6885696E2,2.7128695E4,1.1149116E4,-8.198282E3,-4.5181543E3,-1.4323553E4,-1.4827802E3,-8.652033E2,-6.9819336E2,-1.1176326E3,-1.7626356E3,-1.0388647E3,-1.7080107E3,2.5154434E2,3.851145E2,-3.2903333E2,-2.2612952E2,-2.9295468E2,-3.338901E2,-7.5501385E2,-8.300535E2,1.4554958E3,-5.151684E2,1.8742551E3,2.2881865E3,6.839703E2,-8.118122E2,1.2214386E3,-5.028277E2,6.390341E2,-7.7194867E2,-9.049607E0,-1.1627843E3,1.3658265E3,-2.9137216E2,5.745476E2,-7.176172E2,-4.0110873E2,-1.2011857E3,-2.0767297E2,-2.4004105E2,-6.841947E2,-7.3723535E2],"categories":[],"categories_nodes":[],"categories_segments":[],"categories_sizes":[],"default_left":[0,0,0,0,0,0,0,0,0,0,0,0,0,0,0,0,0,0,0,0,0,0,0,0,0,0,0,0,0,0,0,0,0,0,0,0,0,0,0,0,0,0,0,0,0,0,0,0,0,0,0,0,0,0,0,0,0,0,0,0,0,0,0,0,0,0,0,0,0,0,0,0,0,0,0,0,0,0,0,0,0,0,0,0,0,0,0,0,0,0,0,0,0,0,0],"id":5,"left_children":[1,3,5,7,9,11,13,15,17,19,21,23,25,27,29,31,33,35,37,39,41,43,45,47,49,51,53,55,57,59,61,63,-1,-1,-1,-1,-1,-1,-1,65,-1,67,-1,69,-1,71,-1,73,75,77,79,81,83,85,87,89,91,93,-1,-1,-1,-1,-1,-1,-1,-1,-1,-1,-1,-1,-1,-1,-1,-1,-1,-1,-1,-1,-1,-1,-1,-1,-1,-1,-1,-1,-1,-1,-1,-1,-1,-1,-1,-1,-1],"loss_changes":[6.1989585E12,1.5301993E12,2.3223874E12,6.5629323E10,2.4817915E11,6.659087E11,3.6147626E10,4.231083E10,1.1092099E10,8.493631E10,7.9569355E10,2.6740104E11,3.137414E11,2.3806738E10,6.9067735E9,3.8389678E9,3.1740396E9,5.887099E8,1.1137188E9,1.0713801E10,3.064791E9,1.0036167E10,3.0940856E9,1.4407959E11,3.7447434E10,1.4478803E11,1.4455669E11,2.1422735E9,2.1168456E9,4.9160192E8,9.5073075E8,1.3403095E9,0E0,0E0,0E0,0E0,0E0,0E0,0E0,3.6079288E9,0E0,8.0410624E8,0E0,3.541156E8,0E0,2.8704768E8,0E0,2.0768358E10,2.2601794E10,6.0308357E9,7.6450365E9,1.8014568E10,7.886901E9,1.2366643E10,7.121355E9,9.47157E8,7.584256E6,5.955584E7,0E0,0E0,0E0,0E0,0E0,0E0,0E0,0E0,0E0,0E0,0E0,0E0,0E0,0E0,0E0,0E0,0E0,0E0,0E0,0E0,0E0,0E0,0E0,0E0,0E0,0E0,0E0,0E0,0E0,0E0,0E0,0E0,0E0,0E0,0E0,0E0,0E0],"parents":[2147483647,0,0,1,1,2,2,3,3,4,4,5,5,6,6,7,7,8,8,9,9,10,10,11,11,12,12,13,13,14,14,15,15,16,16,17,17,18,18,19,19,20,20,21,21,22,22,23,23,24,24,25,25,26,26,27,27,28,28,29,29,30,30,31,31,39,39,41,41,43,43,45,45,47,47,48,48,49,49,50,50,51,51,52,52,53,53,54,54,55,55,56,56,57,57],"right_children":[2,4,6,8,10,12,14,16,18,20,22,24,26,28,30,32,34,36,38,40,42,44,46,48,50,52,54,56,58,60,62,64,-1,-1,-1,-1,-1,-1,-1,66,-1,68,-1,70,-1,72,-1,74,76,78,80,82,84,86,88,90,92,94,-1,-1,-1,-1,-1,-1,-1,-1,-1,-1,-1,-1,-1,-1,-1,-1,-1,-1,-1,-1,-1,-1,-1,-1,-1,-1,-1,-1,-1,-1,-1,-1,-1,-1,-1,-1,-1],"split_conditions":[7.010962E-2,-7.9767627E-1,1.5164194E0,9.948937E-1,8.4110475E-1,8.4110475E-1,9.948937E-1,8.4110475E-1,8.4110475E-1,9.948937E-1,9.948937E-1,9.948937E-1,9.378955E-1,8.4110475E-1,8.4110475E-1,2.2700121E0,1.11081085E1,2.2700121E0,1.11081085E1,1.11081085E1,1.11081085E1,1.11081085E1,1.11081085E1,9.378955E-1,9.378955E-1,9.948937E-1,9.948937E-1,2.2700121E0,1.11081085E1,2.2700121E0,1.11081085E1,1.11081085E1,-8.9777606E2,-1.2803523E3,-1.9023236E3,-1.4070204E3,-1.2777557E3,-1.596565E3,-2.179341E3,2.2700121E0,-1.1367723E3,2.2700121E0,-1.2777634E3,-1.5155818E-1,-1.3513378E3,-1.5155818E-1,-1.5877943E3,1.11081085E1,-7.89717E-1,1.11081085E1,1.11081085E1,1.11081085E1,1.11081085E1,1.11081085E1,1.11081085E1,1.11081085E1,-1.0208123E0,-5.033196E-1,-1.4827802E3,-8.652033E2,-6.9819336E2,-1.1176326E3,-1.7626356E3,-1.0388647E3,-1.7080107E3,2.5154434E2,3.851145E2,-3.2903333E2,-2.2612952E2,-2.9295468E2,-3.338901E2,-7.5501385E2,-8.300535E2,1.4554958E3,-5.151684E2,1.8742551E3,2.2881865E3,6.839703E2,-8.118122E2,1.2214386E3,-5.028277E2,6.390341E2,-7.7194867E2,-9.049607E0,-1.1627843E3,1.3658265E3,-2.9137216E2,5.745476E2,-7.176172E2,-4.0110873E2,-1.2011857E3,-2.0767297E2,-2.4004105E2,-6.841947E2,-7.3723535E2],"split_indices":[0,0,0,1,4,4,1,4,4,1,1,1,0,4,4,3,8,3,8,8,8,8,8,0,0,1,1,3,8,3,8,8,0,0,0,0,0,0,0,3,0,3,0,2,0,2,0,8,6,8,8,8,8,8,8,8,2,1,0,0,0,0,0,0,0,0,0,0,0,0,0,0,0,0,0,0,0,0,0,0,0,0,0,0,0,0,0,0,0,0,0,0,0,0,0],"split_type":[0,0,0,0,0,0,0,0,0,0,0,0,0,0,0,0,0,0,0,0,0,0,0,0,0,0,0,0,0,0,0,0,0,0,0,0,0,0,0,0,0,0,0,0,0,0,0,0,0,0,0,0,0,0,0,0,0,0,0,0,0,0,0,0,0,0,0,0,0,0,0,0,0,0,0,0,0,0,0,0,0,0,0,0,0,0,0,0,0,0,0,0,0,0,0],"sum_hessian":[2.8186E4,1.4067E4,1.4119E4,6.995E3,7.072E3,1.1783E4,2.336E3,4.99E3,2.005E3,2.967E3,4.105E3,4.883E3,6.9E3,1.652E3,6.84E2,2.052E3,2.938E3,8.27E2,1.178E3,2.135E3,8.32E2,2.932E3,1.173E3,3.496E3,1.387E3,4.132E3,2.768E3,6.74E2,9.78E2,2.8E2,4.04E2,1.256E3,7.96E2,2.914E3,2.4E1,5E2,3.27E2,1.163E3,1.5E1,2.123E3,1.2E1,8.25E2,7E0,2.909E3,2.3E1,1.16E3,1.3E1,2.068E3,1.428E3,8.2E2,5.67E2,2.93E3,1.202E3,1.971E3,7.97E2,4.08E2,2.66E2,9.69E2,9E0,1.71E2,1.09E2,3.96E2,8E0,1.247E3,9E0,1.27E3,8.53E2,4.99E2,3.26E2,8.22E2,2.087E3,3.46E2,8.14E2,2.055E3,1.3E1,6.6E2,7.68E2,8.14E2,6E0,5.61E2,6E0,2.908E3,2.2E1,1.188E3,1.4E1,1.96E3,1.1E1,7.87E2,1E1,4.05E2,3E0,1.23E2,1.43E2,3.98E2,5.71E2],"tree_param":{"num_deleted":"0","num_feature":"9","num_nodes":"95","size_leaf_vector":"1"}},{"base_weights":[2.239542E1,-1.4034927E4,1.3996424E4,-2.3961021E4,-4.0725408E3,1.9466049E4,-1.3313237E4,-2.0808209E4,-3.327703E4,1.01704175E3,-1.959992E4,2.6620186E4,-2.022665E3,-9.204982E3,-2.5224844E4,-1.880231E4,-2.575301E4,-1.5941833E3,-1.8308264E3,4.0696785E3,-6.7255107E3,-8.687469E2,-1.2450533E3,3.094643E4,1.5591415E4,-6.038114E3,4.0698123E3,-6.625542E3,-1.5499997E4,-1.1657996E3,-1.4804308E3,-1.9294863E4,-8.4908954E2,-1.3068077E3,-1.2167454E3,5.6147026E3,2.1175771E3,-5.521904E3,-8.272709E3,2.5349996E4,3.926021E4,1.0986026E4,2.2334396E4,-3.089829E3,-6.404196E2,7.459419E3,-3.7542954E3,-7.2071167E3,-4.371049E3,-8.037832E2,-6.7267755E2,-9.946784E2,-9.4102747E2,2.269658E2,3.639616E2,1.286685E2,9.584027E1,-3.155638E2,-2.117902E2,-4.039971E2,-4.6728378E2,1.2002472E3,1.509506E3,1.8707584E3,2.176363E3,6.3844244E2,4.3997076E2,1.02043994E3,1.2600273E3,-1.7103555E2,-1.4481236E2,4.2003452E2,3.5723767E2,-2.1467363E2,-1.700781E2,-3.9286435E2,-3.3448514E2,-1.9788116E2,-2.3589583E2],"categories":[],"categories_nodes":[],"categories_segments":[],"categories_sizes":[],"default_left":[0,0,0,0,0,0,0,0,0,0,0,0,0,0,0,0,0,0,0,0,0,0,0,0,0,0,0,0,0,0,0,0,0,0,0,0,0,0,0,0,0,0,0,0,0,0,0,0,0,0,0,0,0,0,0,0,0,0,0,0,0,0,0,0,0,0,0,0,0,0,0,0,0,0,0,0,0,0,0],"id":6,"left_children":[1,3,5,7,9,11,13,15,17,19,21,23,25,27,29,31,33,-1,-1,35,37,-1,-1,39,41,43,45,47,49,-1,-1,51,-1,-1,-1,53,55,57,59,61,63,65,67,69,-1,71,73,75,77,-1,-1,-1,-1,-1,-1,-1,-1,-1,-1,-1,-1,-1,-1,-1,-1,-1,-1,-1,-1,-1,-1,-1,-1,-1,-1,-1,-1,-1,-1],"loss_changes":[5.4870865E12,1.3769121E12,2.0926848E12,2.0417479E11,5.4934267E11,1.7942734E12,1.1418E11,5.1232375E10,7.0313574E9,1.23781276E11,1.9807535E10,4.1729393E11,7.136169E10,2.815076E10,4.3220664E9,3.001811E9,1.7996186E8,0E0,0E0,1.1316371E10,2.7122647E9,0E0,0E0,2.915702E11,7.6427035E10,3.505134E10,3.0765433E10,1.5890842E9,3.7865062E8,0E0,0E0,4.5337805E8,0E0,0E0,0E0,3.718828E9,1.4706586E8,8.219832E8,5.810176E7,2.3760208E10,1.8273796E10,5.6143053E9,5.0102927E9,6.862131E7,0E0,1.7959322E8,5.2150784E7,2.7745485E8,1.8039808E7,0E0,0E0,0E0,0E0,0E0,0E0,0E0,0E0,0E0,0E0,0E0,0E0,0E0,0E0,0E0,0E0,0E0,0E0,0E0,0E0,0E0,0E0,0E0,0E0,0E0,0E0,0E0,0E0,0E0,0E0],"parents":[2147483647,0,0,1,1,2,2,3,3,4,4,5,5,6,6,7,7,8,8,9,9,10,10,11,11,12,12,13,13,14,14,15,15,16,16,19,19,20,20,23,23,24,24,25,25,26,26,27,27,28,28,31,31,35,35,36,36,37,37,38,38,39,39,40,40,41,41,42,42,43,43,45,45,46,46,47,47,48,48],"right_children":[2,4,6,8,10,12,14,16,18,20,22,24,26,28,30,32,34,-1,-1,36,38,-1,-1,40,42,44,46,48,50,-1,-1,52,-1,-1,-1,54,56,58,60,62,64,66,68,70,-1,72,74,76,78,-1,-1,-1,-1,-1,-1,-1,-1,-1,-1,-1,-1,-1,-1,-1,-1,-1,-1,-1,-1,-1,-1,-1,-1,-1,-1,-1,-1,-1,-1],"split_conditions":[7.010962E-2,-7.9767627E-1,1.5164194E0,1.7235993E0,1.7235993E0,1.7235993E0,1.7235993E0,9.948937E-1,9.948937E-1,9.948937E-1,9.948937E-1,9.948937E-1,9.378955E-1,9.948937E-1,9.948937E-1,2.2700121E0,2.2700121E0,-1.5941833E3,-1.8308264E3,8.4110475E-1,8.4110475E-1,-8.687469E2,-1.2450533E3,9.378955E-1,9.378955E-1,9.948937E-1,9.948937E-1,2.2700121E0,2.2700121E0,-1.1657996E3,-1.4804308E3,8.4110475E-1,-8.4908954E2,-1.3068077E3,-1.2167454E3,2.2700121E0,-1.5155818E-1,2.2700121E0,1.0074472E0,2.2700121E0,5.67294E-1,8.4110475E-1,-1.7289384E-1,-5.033196E-1,-6.404196E2,1.0825264E0,1.3819318E-1,8.4110475E-1,-1.0208123E0,-8.037832E2,-6.7267755E2,-9.946784E2,-9.4102747E2,2.269658E2,3.639616E2,1.286685E2,9.584027E1,-3.155638E2,-2.117902E2,-4.039971E2,-4.6728378E2,1.2002472E3,1.509506E3,1.8707584E3,2.176363E3,6.3844244E2,4.3997076E2,1.02043994E3,1.2600273E3,-1.7103555E2,-1.4481236E2,4.2003452E2,3.5723767E2,-2.1467363E2,-1.700781E2,-3.9286435E2,-3.3448514E2,-1.9788116E2,-2.3589583E2],"split_indices":[0,0,0,7,7,7,7,1,1,1,1,1,0,1,1,3,3,0,0,4,4,0,0,0,0,1,1,3,3,0,0,4,0,0,0,3,2,3,2,3,6,4,6,1,0,0,2,4,2,0,0,0,0,0,0,0,0,0,0,0,0,0,0,0,0,0,0,0,0,0,0,0,0,0,0,0,0,0,0],"split_type":[0,0,0,0,0,0,0,0,0,0,0,0,0,0,0,0,0,0,0,0,0,0,0,0,0,0,0,0,0,0,0,0,0,0,0,0,0,0,0,0,0,0,0,0,0,0,0,0,0,0,0,0,0,0,0,0,0,0,0,0,0,0,0,0,0,0,0,0,0,0,0,0,0,0,0,0,0,0,0],"sum_hessian":[2.7931E4,1.3924E4,1.4007E4,6.974E3,6.95E3,1.167E4,2.337E3,5.213E3,1.761E3,5.235E3,1.715E3,8.755E3,2.915E3,1.739E3,5.98E2,3.712E3,1.501E3,1.25E3,5.11E2,3.755E3,1.48E3,1.211E3,5.04E2,6.287E3,2.468E3,1.757E3,1.158E3,1.235E3,5.04E2,4.21E2,1.77E2,2.914E3,7.98E2,1.168E3,3.33E2,2.095E3,1.66E3,8.35E2,6.45E2,3.76E3,2.527E3,1.468E3,1E3,1.225E3,5.32E2,8.08E2,3.5E2,9.8E2,2.55E2,3.88E2,1.16E2,1.27E3,1.644E3,1.275E3,8.2E2,5.04E2,1.156E3,5.15E2,3.2E2,5.54E2,9.1E1,2.947E3,8.13E2,1.771E3,7.56E2,8.06E2,6.62E2,6.03E2,3.97E2,4.46E2,7.79E2,1.96E2,6.12E2,1.34E2,2.16E2,4.28E2,5.52E2,1.22E2,1.33E2],"tree_param":{"num_deleted":"0","num_feature":"9","num_nodes":"79","size_leaf_vector":"1"}},{"base_weights":[-1.8586348E1,-1.3365908E4,1.3230303E4,-2.27983E4,-4.0161309E3,1.8392064E4,-1.2617123E4,-1.9819252E4,-1.57878E3,8.9712854E2,-1.8664605E4,2.5229613E4,-1.9511179E3,-8.7215205E3,-1.1963217E3,-1.9640744E4,-1.8400502E3,1.1517335E3,-1.284315E3,-9.289909E2,-1.6576221E3,2.0125234E4,3.2823453E4,-5.811398E3,3.961502E3,-8.500044E3,-1.4767817E3,-2.0028047E4,-9.116517E2,2.5001135E3,-5.317686E2,2.051024E4,-7.702643E2,3.3191793E4,-8.535532E3,-5.705685E3,-1.3048418E3,4.0110056E3,-8.3079877E2,-9.000508E3,-3.369371E2,-1.0291472E3,-9.7953467E2,7.9005066E1,1.9471729E2,-3.971795E1,7.73668E0,1.168934E3,9.546984E2,1.8332795E3,1.6017003E3,-4.6453574E2,-2.2556038E2,-2.6228818E2,-2.9329865E2,2.3133492E2,1.8967938E2,-4.8200317E2,-4.2424472E2],"categories":[],"categories_nodes":[],"categories_segments":[],"categories_sizes":[],"default_left":[0,0,0,0,0,0,0,0,0,0,0,0,0,0,0,0,0,0,0,0,0,0,0,0,0,0,0,0,0,0,0,0,0,0,0,0,0,0,0,0,0,0,0,0,0,0,0,0,0,0,0,0,0,0,0,0,0,0,0],"id":7,"left_children":[1,3,5,7,9,11,13,15,-1,17,19,21,23,25,-1,27,-1,29,-1,-1,-1,31,33,35,37,39,-1,41,-1,43,45,47,-1,49,51,53,-1,55,-1,57,-1,-1,-1,-1,-1,-1,-1,-1,-1,-1,-1,-1,-1,-1,-1,-1,-1,-1,-1],"loss_changes":[4.9691246E12,1.2344028E12,1.8816964E12,1.8157352E11,5.0605018E11,1.6351402E12,1.0323614E11,1.5055847E10,0E0,3.567131E10,1.5533343E9,3.403662E11,6.7537506E10,7.806927E9,0E0,2.4442307E9,0E0,1.1843922E10,0E0,0E0,0E0,7.232461E10,5.413588E10,3.6896358E9,1.2574659E9,1.465172E9,0E0,5.7501286E8,0E0,3.7098598E9,4.1852685E8,2.071108E10,0E0,1.2918194E10,5.533901E7,1.0059366E8,0E0,1.3866394E8,0E0,3.6172595E8,0E0,0E0,0E0,0E0,0E0,0E0,0E0,0E0,0E0,0E0,0E0,0E0,0E0,0E0,0E0,0E0,0E0,0E0,0E0],"parents":[2147483647,0,0,1,1,2,2,3,3,4,4,5,5,6,6,7,7,9,9,10,10,11,11,12,12,13,13,15,15,17,17,21,21,22,22,23,23,24,24,25,25,27,27,29,29,30,30,31,31,33,33,34,34,35,35,37,37,39,39],"right_children":[2,4,6,8,10,12,14,16,-1,18,20,22,24,26,-1,28,-1,30,-1,-1,-1,32,34,36,38,40,-1,42,-1,44,46,48,-1,50,52,54,-1,56,-1,58,-1,-1,-1,-1,-1,-1,-1,-1,-1,-1,-1,-1,-1,-1,-1,-1,-1,-1,-1],"split_conditions":[7.010962E-2,-7.9767627E-1,1.5164194E0,1.7235993E0,1.7235993E0,1.7235993E0,1.7235993E0,1.11081085E1,-1.57878E3,1.11081085E1,1.11081085E1,9.378955E-1,9.378955E-1,1.11081085E1,-1.1963217E3,2.2700121E0,-1.8400502E3,8.4110475E-1,-1.284315E3,-9.289909E2,-1.6576221E3,1.11081085E1,1.11081085E1,1.11081085E1,1.11081085E1,2.2700121E0,-1.4767817E3,8.4110475E-1,-9.116517E2,2.2700121E0,7.176959E-1,-7.310609E-1,-7.702643E2,1.0825264E0,1.3819318E-1,-1.5155818E-1,-1.3048418E3,1.0825264E0,-8.3079877E2,8.4110475E-1,-3.369371E2,-1.0291472E3,-9.7953467E2,7.9005066E1,1.9471729E2,-3.971795E1,7.73668E0,1.168934E3,9.546984E2,1.8332795E3,1.6017003E3,-4.6453574E2,-2.2556038E2,-2.6228818E2,-2.9329865E2,2.3133492E2,1.8967938E2,-4.8200317E2,-4.2424472E2],"split_indices":[0,0,0,7,7,7,7,8,0,8,8,0,0,8,0,3,0,4,0,0,0,8,8,8,8,3,0,4,0,3,2,2,0,0,2,2,0,0,0,4,0,0,0,0,0,0,0,0,0,0,0,0,0,0,0,0,0,0,0],"split_type":[0,0,0,0,0,0,0,0,0,0,0,0,0,0,0,0,0,0,0,0,0,0,0,0,0,0,0,0,0,0,0,0,0,0,0,0,0,0,0,0,0,0,0,0,0,0,0,0,0,0,0,0,0,0,0,0,0,0,0],"sum_hessian":[2.8098E4,1.3997E4,1.4101E4,6.967E3,7.03E3,1.1754E4,2.347E3,5.204E3,1.763E3,5.265E3,1.765E3,8.797E3,2.957E3,1.747E3,6E2,5.152E3,5.2E1,5.216E3,4.9E1,1.757E3,8E0,5.263E3,3.534E3,1.789E3,1.168E3,1.73E3,1.7E1,4.03E3,1.122E3,2.896E3,2.32E3,5.207E3,5.6E1,3.503E3,3.1E1,1.781E3,8E0,1.166E3,2E0,1.344E3,3.86E2,1.756E3,2.274E3,1.746E3,1.15E3,1.678E3,6.42E2,1.716E3,3.491E3,8.68E2,2.635E3,2.5E1,6E0,4.69E2,1.312E3,2.99E2,8.67E2,5.92E2,7.52E2],"tree_param":{"num_deleted":"0","num_feature":"9","num_nodes":"59","size_leaf_vector":"1"}},{"base_weights":[2.5901978E1,-1.2679623E4,1.2644803E4,-2.164061E4,-3.7781272E3,1.7604764E4,-1.200898E4,-1.882407E4,-3.0093975E4,8.8242725E2,-1.7752326E4,2.4113238E4,-1.7765043E3,-8.239001E3,-2.2733521E4,-1.6875307E4,-2.3521393E4,-1.4360658E3,-1.6607994E3,3.7779678E3,-6.521362E3,-1.565434E4,-1.1345703E3,2.8302957E4,1.3542718E4,1.1556036E3,-8.724407E3,-5.8129927E3,-1.4111863E4,-1.0510306E3,-1.336862E3,-1.6735139E4,-1.6462577E3,-2.333289E4,-1.8298036E3,3.997588E3,-1.104871E3,-6.300615E3,-1.3162938E3,-7.795948E2,-1.3948623E3,2.3162682E4,3.579608E4,9.433394E3,1.9668506E4,-2.537812E3,6.841236E3,-1.2067924E4,-3.8622134E3,-5.6074766E3,-1.3171296E3,-1.3848055E4,-1.4467435E3,-8.1358417E2,-8.809147E2,-1.1415808E3,-1.2153856E3,2.6604587E2,1.17545975E2,-2.3950923E2,-3.5158997E2,1.1716519E3,-6.074164E2,1.8070629E3,-2.7947003E2,4.8769565E2,-9.493908E2,1.0067707E3,-6.1671063E2,-1.2316697E2,-1.0354006E3,3.455566E2,-7.213796E2,-5.9390027E2,-1.3147308E3,-1.9040987E2,-5.7864764E2,-2.4896898E2,-3.4189322E2,-6.658945E2,-7.4313696E2],"categories":[],"categories_nodes":[],"categories_segments":[],"categories_sizes":[],"default_left":[0,0,0,0,0,0,0,0,0,0,0,0,0,0,0,0,0,0,0,0,0,0,0,0,0,0,0,0,0,0,0,0,0,0,0,0,0,0,0,0,0,0,0,0,0,0,0,0,0,0,0,0,0,0,0,0,0,0,0,0,0,0,0,0,0,0,0,0,0,0,0,0,0,0,0,0,0,0,0,0,0],"id":8,"left_children":[1,3,5,7,9,11,13,15,17,19,21,23,25,27,29,31,33,-1,-1,35,37,39,-1,41,43,45,47,49,51,-1,-1,53,-1,55,-1,57,-1,59,-1,-1,-1,61,63,65,67,69,71,73,75,77,-1,79,-1,-1,-1,-1,-1,-1,-1,-1,-1,-1,-1,-1,-1,-1,-1,-1,-1,-1,-1,-1,-1,-1,-1,-1,-1,-1,-1,-1,-1],"loss_changes":[4.499815E12,1.1154481E12,1.7220617E12,1.6535991E11,4.570154E11,1.4788117E12,9.519012E10,4.747834E10,6.502744E9,1.1285268E11,1.7830314E10,3.882835E11,6.0066742E10,2.4808546E10,3.641901E9,7.772832E9,2.9194977E9,0E0,0E0,2.1591884E10,6.3043584E9,5.0918195E8,0E0,2.4121023E11,6.2570365E10,4.3570123E10,1.4178116E10,5.0756035E9,1.5936307E9,0E0,0E0,1.2154307E9,0E0,1.8382848E8,0E0,8.165593E9,0E0,1.5842673E9,0E0,0E0,0E0,3.589328E10,3.670147E10,1.3794869E10,1.519072E10,1.6512963E9,1.3142712E9,1.0872586E9,1.0503578E8,9.1418214E8,0E0,7.265485E7,0E0,0E0,0E0,0E0,0E0,0E0,0E0,0E0,0E0,0E0,0E0,0E0,0E0,0E0,0E0,0E0,0E0,0E0,0E0,0E0,0E0,0E0,0E0,0E0,0E0,0E0,0E0,0E0,0E0],"parents":[2147483647,0,0,1,1,2,2,3,3,4,4,5,5,6,6,7,7,8,8,9,9,10,10,11,11,12,12,13,13,14,14,15,15,16,16,19,19,20,20,21,21,23,23,24,24,25,25,26,26,27,27,28,28,31,31,33,33,35,35,37,37,41,41,42,42,43,43,44,44,45,45,46,46,47,47,48,48,49,49,51,51],"right_children":[2,4,6,8,10,12,14,16,18,20,22,24,26,28,30,32,34,-1,-1,36,38,40,-1,42,44,46,48,50,52,-1,-1,54,-1,56,-1,58,-1,60,-1,-1,-1,62,64,66,68,70,72,74,76,78,-1,80,-1,-1,-1,-1,-1,-1,-1,-1,-1,-1,-1,-1,-1,-1,-1,-1,-1,-1,-1,-1,-1,-1,-1,-1,-1,-1,-1,-1,-1],"split_conditions":[7.010962E-2,-7.9767627E-1,1.5164194E0,1.7235993E0,1.7235993E0,1.7235993E0,1.7235993E0,9.948937E-1,9.948937E-1,9.948937E-1,9.948937E-1,9.948937E-1,9.948937E-1,9.948937E-1,9.948937E-1,1.11081085E1,1.11081085E1,-1.4360658E3,-1.6607994E3,1.11081085E1,1.11081085E1,1.11081085E1,-1.1345703E3,9.378955E-1,9.378955E-1,9.378955E-1,9.378955E-1,1.11081085E1,1.11081085E1,-1.0510306E3,-1.336862E3,1.7237297E0,-1.6462577E3,1.7237297E0,-1.8298036E3,8.4110475E-1,-1.104871E3,-7.310609E-1,-1.3162938E3,-7.795948E2,-1.3948623E3,1.11081085E1,1.11081085E1,1.11081085E1,1.11081085E1,1.11081085E1,1.11081085E1,1.11081085E1,1.11081085E1,1.7237297E0,-1.3171296E3,1.7237297E0,-1.4467435E3,-8.1358417E2,-8.809147E2,-1.1415808E3,-1.2153856E3,2.6604587E2,1.17545975E2,-2.3950923E2,-3.5158997E2,1.1716519E3,-6.074164E2,1.8070629E3,-2.7947003E2,4.8769565E2,-9.493908E2,1.0067707E3,-6.1671063E2,-1.2316697E2,-1.0354006E3,3.455566E2,-7.213796E2,-5.9390027E2,-1.3147308E3,-1.9040987E2,-5.7864764E2,-2.4896898E2,-3.4189322E2,-6.658945E2,-7.4313696E2],"split_indices":[0,0,0,7,7,7,7,1,1,1,1,1,1,1,1,8,8,0,0,8,8,8,0,0,0,0,0,8,8,0,0,5,0,5,0,4,0,2,0,0,0,8,8,8,8,8,8,8,8,5,0,5,0,0,0,0,0,0,0,0,0,0,0,0,0,0,0,0,0,0,0,0,0,0,0,0,0,0,0,0,0],"split_type":[0,0,0,0,0,0,0,0,0,0,0,0,0,0,0,0,0,0,0,0,0,0,0,0,0,0,0,0,0,0,0,0,0,0,0,0,0,0,0,0,0,0,0,0,0,0,0,0,0,0,0,0,0,0,0,0,0,0,0,0,0,0,0,0,0,0,0,0,0,0,0,0,0,0,0,0,0,0,0,0,0],"sum_hessian":[2.8064E4,1.3984E4,1.408E4,6.968E3,7.016E3,1.1722E4,2.358E3,5.229E3,1.739E3,5.262E3,1.754E3,8.775E3,2.947E3,1.746E3,6.12E2,3.699E3,1.53E3,1.215E3,5.24E2,3.783E3,1.479E3,1.234E3,5.2E2,6.283E3,2.492E3,2.073E3,8.74E2,1.237E3,5.09E2,4.33E2,1.79E2,3.669E3,3E1,1.511E3,1.9E1,3.752E3,3.1E1,1.464E3,1.5E1,1.23E3,4E0,3.729E3,2.554E3,1.493E3,9.99E2,1.257E3,8.16E2,5.17E2,3.57E2,1.226E3,1.1E1,5.02E2,7E0,2.419E3,1.25E3,1.014E3,4.97E2,2.079E3,1.673E3,4.8E2,9.84E2,3.701E3,2.8E1,2.533E3,2.1E1,1.477E3,1.6E1,9.85E2,1.4E1,1.253E3,4E0,8.14E2,2E0,5.12E2,5E0,3.56E2,1E0,8.15E2,4.11E2,3.39E2,1.63E2],"tree_param":{"num_deleted":"0","num_feature":"9","num_nodes":"81","size_leaf_vector":"1"}},{"base_weights":[6.665843E1,-1.1970843E4,1.2038245E4,-2.0517375E4,-3.5644104E3,1.6687402E4,-1.1332208E4,-1.7832729E4,-2.8565668E4,8.52641E2,-1.689659E4,2.2789602E4,-1.7063239E3,-7.8440225E3,-2.1653156E4,-1.6044272E4,-2.231235E4,-1.3660912E3,-1.5763936E3,3.637608E3,-6.1816816E3,-7.4761774E2,-1.0755309E3,2.6727412E4,1.2865205E4,1.0956038E3,-8.212498E3,-5.5791333E3,-1.3508687E4,-9.954924E2,-1.2799272E3,-1.6436357E4,-7.278195E2,-1.1337179E3,-1.0452418E3,2.8234463E3,6.5257656E3,-6.7991367E3,-3.9918276E3,2.1940371E4,3.393733E4,8.966321E3,1.865236E4,-2.4578655E3,6.512195E3,-5.726031E2,-3.5886895E3,-6.1700464E3,-3.3827026E3,-6.982041E2,-5.926115E2,-8.021968E2,-8.461261E2,9.829314E1,1.9912929E2,3.3907172E2,3.136665E2,-3.722962E2,-2.95196E2,-1.7629744E2,-2.2196362E2,1.0364856E3,1.314134E3,1.6109563E3,1.892278E3,3.9957645E2,6.2028265E2,8.577375E2,1.1070582E3,-9.269344E1,-1.2895476E2,3.5808676E2,3.1487045E2,-1.7319754E2,-2.1352539E2,-2.8429288E2,-3.400123E2,-1.8141039E2,-1.4716382E2],"categories":[],"categories_nodes":[],"categories_segments":[],"categories_sizes":[],"default_left":[0,0,0,0,0,0,0,0,0,0,0,0,0,0,0,0,0,0,0,0,0,0,0,0,0,0,0,0,0,0,0,0,0,0,0,0,0,0,0,0,0,0,0,0,0,0,0,0,0,0,0,0,0,0,0,0,0,0,0,0,0,0,0,0,0,0,0,0,0,0,0,0,0,0,0,0,0,0,0],"id":9,"left_children":[1,3,5,7,9,11,13,15,17,19,21,23,25,27,29,31,33,-1,-1,35,37,-1,-1,39,41,43,45,47,49,-1,-1,51,-1,-1,-1,53,55,57,59,61,63,65,67,69,71,-1,73,75,77,-1,-1,-1,-1,-1,-1,-1,-1,-1,-1,-1,-1,-1,-1,-1,-1,-1,-1,-1,-1,-1,-1,-1,-1,-1,-1,-1,-1,-1,-1],"loss_changes":[4.042085E12,1.0047631E12,1.5281743E12,1.4933374E11,4.1529908E11,1.31664E12,8.385741E10,4.1326346E10,5.5237673E9,1.03812194E11,1.542203E10,3.4387578E11,5.3294797E10,2.2325535E10,3.5415E9,1.9321324E9,2.810839E8,0E0,0E0,8.907592E9,2.0051231E9,0E0,0E0,2.1686754E11,5.63316E10,3.9358284E10,1.3140525E10,1.6002048E9,2.1014938E8,0E0,0E0,2.8901376E8,0E0,0E0,0E0,2.9375672E9,1.128448E7,6.340608E8,5.376256E7,1.9390005E10,1.5662318E10,4.923097E9,4.881613E9,8.564838E7,6.790349E7,0E0,1.6165376E7,2.6128384E8,1.8125312E7,0E0,0E0,0E0,0E0,0E0,0E0,0E0,0E0,0E0,0E0,0E0,0E0,0E0,0E0,0E0,0E0,0E0,0E0,0E0,0E0,0E0,0E0,0E0,0E0,0E0,0E0,0E0,0E0,0E0,0E0],"parents":[2147483647,0,0,1,1,2,2,3,3,4,4,5,5,6,6,7,7,8,8,9,9,10,10,11,11,12,12,13,13,14,14,15,15,16,16,19,19,20,20,23,23,24,24,25,25,26,26,27,27,28,28,31,31,35,35,36,36,37,37,38,38,39,39,40,40,41,41,42,42,43,43,44,44,46,46,47,47,48,48],"right_children":[2,4,6,8,10,12,14,16,18,20,22,24,26,28,30,32,34,-1,-1,36,38,-1,-1,40,42,44,46,48,50,-1,-1,52,-1,-1,-1,54,56,58,60,62,64,66,68,70,72,-1,74,76,78,-1,-1,-1,-1,-1,-1,-1,-1,-1,-1,-1,-1,-1,-1,-1,-1,-1,-1,-1,-1,-1,-1,-1,-1,-1,-1,-1,-1,-1,-1],"split_conditions":[7.010962E-2,-7.9767627E-1,1.5164194E0,1.7235993E0,1.7235993E0,1.7235993E0,1.7235993E0,9.948937E-1,9.948937E-1,9.948937E-1,9.948937E-1,9.948937E-1,9.948937E-1,9.948937E-1,9.948937E-1,2.2700121E0,2.2700121E0,-1.3660912E3,-1.5763936E3,2.2700121E0,2.2700121E0,-7.4761774E2,-1.0755309E3,9.378955E-1,9.378955E-1,9.378955E-1,9.378955E-1,2.2700121E0,2.2700121E0,-9.954924E2,-1.2799272E3,1.7237297E0,-7.278195E2,-1.1337179E3,-1.0452418E3,1.7237297E0,-1.0208123E0,1.7237297E0,-1.0208123E0,2.2700121E0,5.67294E-1,2.2700121E0,5.67294E-1,2.1474059E-1,1.0825264E0,-5.726031E2,1.0074472E0,1.7237297E0,-3.915167E-3,-6.982041E2,-5.926115E2,-8.021968E2,-8.461261E2,9.829314E1,1.9912929E2,3.3907172E2,3.136665E2,-3.722962E2,-2.95196E2,-1.7629744E2,-2.2196362E2,1.0364856E3,1.314134E3,1.6109563E3,1.892278E3,3.9957645E2,6.2028265E2,8.577375E2,1.1070582E3,-9.269344E1,-1.2895476E2,3.5808676E2,3.1487045E2,-1.7319754E2,-2.1352539E2,-2.8429288E2,-3.400123E2,-1.8141039E2,-1.4716382E2],"split_indices":[0,0,0,7,7,7,7,1,1,1,1,1,1,1,1,3,3,0,0,3,3,0,0,0,0,0,0,3,3,0,0,5,0,0,0,5,2,5,2,3,6,3,6,0,0,0,2,5,1,0,0,0,0,0,0,0,0,0,0,0,0,0,0,0,0,0,0,0,0,0,0,0,0,0,0,0,0,0,0],"split_type":[0,0,0,0,0,0,0,0,0,0,0,0,0,0,0,0,0,0,0,0,0,0,0,0,0,0,0,0,0,0,0,0,0,0,0,0,0,0,0,0,0,0,0,0,0,0,0,0,0,0,0,0,0,0,0,0,0,0,0,0,0,0,0,0,0,0,0,0,0,0,0,0,0,0,0,0,0,0,0],"sum_hessian":[2.8047E4,1.3985E4,1.4062E4,6.934E3,7.051E3,1.1729E4,2.333E3,5.202E3,1.732E3,5.297E3,1.754E3,8.807E3,2.922E3,1.745E3,5.88E2,3.721E3,1.481E3,1.227E3,5.05E2,3.795E3,1.502E3,1.237E3,5.17E2,6.304E3,2.503E3,2.043E3,8.79E2,1.248E3,4.97E2,4.12E2,1.76E2,2.937E3,7.84E2,1.166E3,3.15E2,2.962E3,8.33E2,1.17E3,3.32E2,3.791E3,2.513E3,1.497E3,1.006E3,1.234E3,8.09E2,5.16E2,3.63E2,9.82E2,2.66E2,3.84E2,1.13E2,1.644E3,1.293E3,1.704E3,1.258E3,4.01E2,4.32E2,6.75E2,4.95E2,1.67E2,1.65E2,2.969E3,8.22E2,1.752E3,7.61E2,1.169E3,3.28E2,7.08E2,2.98E2,2.09E2,1.025E3,1.93E2,6.16E2,3.12E2,5.1E1,5.61E2,4.21E2,1.66E2,1E2],"tree_param":{"num_deleted":"0","num_feature":"9","num_nodes":"79","size_leaf_vector":"1"}},{"base_weights":[4.5813572E1,-1.1403399E4,1.1437884E4,-1.9515334E4,-3.415565E3,1.5838927E4,-1.0740871E4,-1.697397E4,-2.707709E4,8.466737E2,-1.6080018E4,2.1629488E4,-1.5322344E3,-7.4327197E3,-2.0489527E4,-1.5249848E4,-2.1243355E4,-1.2923273E3,-1.4997098E3,3.4780518E3,-5.8880205E3,-7.0857855E2,-1.0279038E3,2.5367154E4,1.2180569E4,1.1321002E3,-7.791972E3,-5.2833813E3,-1.2735317E4,-9.4495605E2,-1.2144442E3,-1.510045E4,-1.5224835E3,-2.1015016E4,-1.6887139E3,3.6739702E3,-1.0583433E3,-5.6196147E3,-1.2593611E3,2.080738E4,3.221941E4,8.620988E3,1.7638031E4,-2.3681895E3,6.234637E3,-1.0864227E4,-3.3544373E3,-5.0743574E3,-1.2286722E3,-6.5643274E2,-5.504745E2,-7.725954E2,-6.89506E2,-1.0267103E3,-1.098243E3,1.483073E2,3.0905927E2,-3.3617343E2,-2.3961316E2,1.0561478E3,-6.295268E2,1.6252274E3,-3.4448376E2,4.4137265E2,-8.9355664E2,9.05715E2,-6.124445E2,-1.1472434E2,-9.9021564E2,3.1348154E2,-5.746162E2,-5.377548E2,-1.1072108E3,-1.6506834E2,-5.588434E2,-2.7675076E2,-1.7043718E2],"categories":[],"categories_nodes":[],"categories_segments":[],"categories_sizes":[],"default_left":[0,0,0,0,0,0,0,0,0,0,0,0,0,0,0,0,0,0,0,0,0,0,0,0,0,0,0,0,0,0,0,0,0,0,0,0,0,0,0,0,0,0,0,0,0,0,0,0,0,0,0,0,0,0,0,0,0,0,0,0,0,0,0,0,0,0,0,0,0,0,0,0,0,0,0,0,0],"id":10,"left_children":[1,3,5,7,9,11,13,15,17,19,21,23,25,27,29,31,33,-1,-1,35,37,-1,-1,39,41,43,45,47,49,-1,-1,51,-1,53,-1,55,-1,57,-1,59,61,63,65,67,69,71,73,75,-1,-1,-1,-1,-1,-1,-1,-1,-1,-1,-1,-1,-1,-1,-1,-1,-1,-1,-1,-1,-1,-1,-1,-1,-1,-1,-1,-1,-1],"loss_changes":[3.649699E12,9.042374E11,1.3692429E12,1.3260004E11,3.7964733E11,1.1773246E12,7.476455E10,3.7842715E10,5.470683E9,9.3288866E10,1.4843871E10,3.0970243E11,4.8825434E10,1.9718038E10,3.0939382E9,7.935361E9,3.550675E9,0E0,0E0,1.8353234E10,7.519691E9,0E0,0E0,1.958276E11,4.821939E10,3.669994E10,1.1879002E10,4.8629924E9,1.948713E8,0E0,0E0,1.4739046E9,0E0,2.1803827E8,0E0,6.6473165E9,0E0,1.30116E9,0E0,4.0095056E10,2.8225569E10,8.411521E9,1.4199882E10,1.5210829E9,5.906432E8,3.9702938E8,1.1213696E8,9.2104704E8,0E0,0E0,0E0,0E0,0E0,0E0,0E0,0E0,0E0,0E0,0E0,0E0,0E0,0E0,0E0,0E0,0E0,0E0,0E0,0E0,0E0,0E0,0E0,0E0,0E0,0E0,0E0,0E0,0E0],"parents":[2147483647,0,0,1,1,2,2,3,3,4,4,5,5,6,6,7,7,8,8,9,9,10,10,11,11,12,12,13,13,14,14,15,15,16,16,19,19,20,20,23,23,24,24,25,25,26,26,27,27,28,28,31,31,33,33,35,35,37,37,39,39,40,40,41,41,42,42,43,43,44,44,45,45,46,46,47,47],"right_children":[2,4,6,8,10,12,14,16,18,20,22,24,26,28,30,32,34,-1,-1,36,38,-1,-1,40,42,44,46,48,50,-1,-1,52,-1,54,-1,56,-1,58,-1,60,62,64,66,68,70,72,74,76,-1,-1,-1,-1,-1,-1,-1,-1,-1,-1,-1,-1,-1,-1,-1,-1,-1,-1,-1,-1,-1,-1,-1,-1,-1,-1,-1,-1,-1],"split_conditions":[7.010962E-2,-7.9767627E-1,1.5164194E0,1.7235993E0,1.7235993E0,1.7235993E0,1.7235993E0,9.948937E-1,9.948937E-1,9.948937E-1,9.948937E-1,9.948937E-1,9.948937E-1,9.948937E-1,9.948937E-1,1.11081085E1,1.11081085E1,-1.2923273E3,-1.4997098E3,1.11081085E1,1.11081085E1,-7.0857855E2,-1.0279038E3,9.378955E-1,9.378955E-1,9.378955E-1,9.378955E-1,1.11081085E1,2.2700121E0,-9.4495605E2,-1.2144442E3,2.2700121E0,-1.5224835E3,1.7237297E0,-1.6887139E3,2.2700121E0,-1.0583433E3,5.67294E-1,-1.2593611E3,1.11081085E1,1.11081085E1,1.11081085E1,1.11081085E1,1.11081085E1,1.11081085E1,1.11081085E1,1.11081085E1,2.2700121E0,-1.2286722E3,-6.5643274E2,-5.504745E2,-7.725954E2,-6.89506E2,-1.0267103E3,-1.098243E3,1.483073E2,3.0905927E2,-3.3617343E2,-2.3961316E2,1.0561478E3,-6.295268E2,1.6252274E3,-3.4448376E2,4.4137265E2,-8.9355664E2,9.05715E2,-6.124445E2,-1.1472434E2,-9.9021564E2,3.1348154E2,-5.746162E2,-5.377548E2,-1.1072108E3,-1.6506834E2,-5.588434E2,-2.7675076E2,-1.7043718E2],"split_indices":[0,0,0,7,7,7,7,1,1,1,1,1,1,1,1,8,8,0,0,8,8,0,0,0,0,0,0,8,3,0,0,3,0,5,0,3,0,6,0,8,8,8,8,8,8,8,8,3,0,0,0,0,0,0,0,0,0,0,0,0,0,0,0,0,0,0,0,0,0,0,0,0,0,0,0,0,0],"split_type":[0,0,0,0,0,0,0,0,0,0,0,0,0,0,0,0,0,0,0,0,0,0,0,0,0,0,0,0,0,0,0,0,0,0,0,0,0,0,0,0,0,0,0,0,0,0,0,0,0,0,0,0,0,0,0,0,0,0,0,0,0,0,0,0,0,0,0,0,0,0,0,0,0,0,0,0,0],"sum_hessian":[2.798E4,1.3955E4,1.4025E4,6.923E3,7.032E3,1.1703E4,2.322E3,5.184E3,1.739E3,5.262E3,1.77E3,8.777E3,2.926E3,1.735E3,5.87E2,3.696E3,1.488E3,1.23E3,5.09E2,3.784E3,1.478E3,1.244E3,5.26E2,6.288E3,2.489E3,2.053E3,8.73E2,1.236E3,4.99E2,4.18E2,1.69E2,3.662E3,3.4E1,1.464E3,2.4E1,3.755E3,2.9E1,1.459E3,1.9E1,3.778E3,2.51E3,1.508E3,9.81E2,1.218E3,8.35E2,5.15E2,3.58E2,1.224E3,1.2E1,4.01E2,9.8E1,2.879E3,7.83E2,9.87E2,4.77E2,2.93E3,8.25E2,6.22E2,8.37E2,3.743E3,3.5E1,2.492E3,1.8E1,1.497E3,1.1E1,9.66E2,1.5E1,1.214E3,4E0,8.34E2,1E0,5.12E2,3E0,3.57E2,1E0,9.57E2,2.67E2],"tree_param":{"num_deleted":"0","num_feature":"9","num_nodes":"77","size_leaf_vector":"1"}},{"base_weights":[5.0391182E1,-1.0845024E4,1.0860189E4,-1.852364E4,-3.2023503E3,1.505894E4,-1.0304892E4,-1.6081308E4,-2.5746484E4,8.293745E2,-1.529337E4,2.058337E4,-1.4949338E3,-6.979442E3,-1.9542922E4,-1.4425612E4,-2.0118484E4,-1.2317147E3,-1.4222489E3,3.267806E3,-5.5587754E3,-1.3500654E4,-1.9499916E4,2.4192008E4,1.1624559E4,1.103665E3,-7.5124424E3,-4.966975E3,-1.2184452E4,-9.053623E2,-1.1502379E3,-1.4301811E4,-1.4499486E3,-1.994089E4,-1.5855221E3,3.4721538E3,-1.0020086E3,-5.362616E3,-1.1937802E3,-6.721243E2,-1.2496754E3,-9.67772E2,-1.4301346E3,1.9846775E4,3.062937E4,8.172695E3,1.6766922E4,-2.2687905E3,5.916715E3,-1.0405389E4,-3.208805E3,-4.8157144E3,-1.1484746E3,-1.199674E4,-1.2428939E3,-7.325181E2,-6.521328E2,-1.037326E3,-9.757723E2,1.00216835E2,2.312167E2,-2.9378088E2,-1.7685768E2,1.00622833E3,-5.941994E2,1.5464382E3,-3.1928537E2,4.2201837E2,-8.657624E2,8.601496E2,-5.6995685E2,-1.098301E2,-9.555708E2,2.9899966E2,-6.886752E2,-5.1157516E2,-1.1899579E3,-1.544627E2,-8.1230994E2,-2.6269943E2,-1.6534981E2,-5.877057E2,-6.920733E2],"categories":[],"categories_nodes":[],"categories_segments":[],"categories_sizes":[],"default_left":[0,0,0,0,0,0,0,0,0,0,0,0,0,0,0,0,0,0,0,0,0,0,0,0,0,0,0,0,0,0,0,0,0,0,0,0,0,0,0,0,0,0,0,0,0,0,0,0,0,0,0,0,0,0,0,0,0,0,0,0,0,0,0,0,0,0,0,0,0,0,0,0,0,0,0,0,0,0,0,0,0,0,0],"id":11,"left_children":[1,3,5,7,9,11,13,15,17,19,21,23,25,27,29,31,33,-1,-1,35,37,39,41,43,45,47,49,51,53,-1,-1,55,-1,57,-1,59,-1,61,-1,-1,-1,-1,-1,63,65,67,69,71,73,75,77,79,-1,81,-1,-1,-1,-1,-1,-1,-1,-1,-1,-1,-1,-1,-1,-1,-1,-1,-1,-1,-1,-1,-1,-1,-1,-1,-1,-1,-1,-1,-1],"loss_changes":[3.2845718E12,8.1501893E11,1.2442027E12,1.2179997E11,3.3939394E11,1.0683582E12,7.107397E10,3.4334573E10,4.5483295E9,8.13616E10,1.2865864E10,2.828893E11,4.5731144E10,1.7809678E10,2.6300908E9,6.219301E9,2.463957E9,0E0,0E0,1.8073473E10,5.05668E9,4.823122E8,1.2761498E8,1.7402036E11,4.4541575E10,3.3174985E10,1.0947678E10,3.2442184E9,8.317911E8,0E0,0E0,1.4099415E9,0E0,1.0374349E8,0E0,6.329307E9,0E0,1.317421E9,0E0,0E0,0E0,0E0,0E0,3.3117176E10,2.8058059E10,1.0434347E10,1.2601295E10,1.4194652E9,1.1314708E9,9.838715E8,5.0468378E8,7.913124E8,0E0,4.766515E7,0E0,0E0,0E0,0E0,0E0,0E0,0E0,0E0,0E0,0E0,0E0,0E0,0E0,0E0,0E0,0E0,0E0,0E0,0E0,0E0,0E0,0E0,0E0,0E0,0E0,0E0,0E0,0E0,0E0],"parents":[2147483647,0,0,1,1,2,2,3,3,4,4,5,5,6,6,7,7,8,8,9,9,10,10,11,11,12,12,13,13,14,14,15,15,16,16,19,19,20,20,21,21,22,22,23,23,24,24,25,25,26,26,27,27,28,28,31,31,33,33,35,35,37,37,43,43,44,44,45,45,46,46,47,47,48,48,49,49,50,50,51,51,53,53],"right_children":[2,4,6,8,10,12,14,16,18,20,22,24,26,28,30,32,34,-1,-1,36,38,40,42,44,46,48,50,52,54,-1,-1,56,-1,58,-1,60,-1,62,-1,-1,-1,-1,-1,64,66,68,70,72,74,76,78,80,-1,82,-1,-1,-1,-1,-1,-1,-1,-1,-1,-1,-1,-1,-1,-1,-1,-1,-1,-1,-1,-1,-1,-1,-1,-1,-1,-1,-1,-1,-1],"split_conditions":[7.010962E-2,-7.9767627E-1,1.5164194E0,1.7235993E0,1.7235993E0,1.7235993E0,1.7235993E0,9.948937E-1,9.948937E-1,9.948937E-1,9.948937E-1,9.948937E-1,9.948937E-1,9.948937E-1,9.948937E-1,1.11081085E1,1.11081085E1,-1.2317147E3,-1.4222489E3,1.11081085E1,1.11081085E1,1.11081085E1,1.11081085E1,9.378955E-1,9.378955E-1,9.378955E-1,9.378955E-1,1.11081085E1,1.11081085E1,-9.053623E2,-1.1502379E3,2.2700121E0,-1.4499486E3,-7.89717E-1,-1.5855221E3,5.67294E-1,-1.0020086E3,2.2700121E0,-1.1937802E3,-6.721243E2,-1.2496754E3,-9.67772E2,-1.4301346E3,1.11081085E1,1.11081085E1,1.11081085E1,1.11081085E1,1.11081085E1,1.11081085E1,1.11081085E1,1.11081085E1,2.2700121E0,-1.1484746E3,1.58695E0,-1.2428939E3,-7.325181E2,-6.521328E2,-1.037326E3,-9.757723E2,1.00216835E2,2.312167E2,-2.9378088E2,-1.7685768E2,1.00622833E3,-5.941994E2,1.5464382E3,-3.1928537E2,4.2201837E2,-8.657624E2,8.601496E2,-5.6995685E2,-1.098301E2,-9.555708E2,2.9899966E2,-6.886752E2,-5.1157516E2,-1.1899579E3,-1.544627E2,-8.1230994E2,-2.6269943E2,-1.6534981E2,-5.877057E2,-6.920733E2],"split_indices":[0,0,0,7,7,7,7,1,1,1,1,1,1,1,1,8,8,0,0,8,8,8,8,0,0,0,0,8,8,0,0,3,0,6,0,6,0,3,0,0,0,0,0,8,8,8,8,8,8,8,8,3,0,2,0,0,0,0,0,0,0,0,0,0,0,0,0,0,0,0,0,0,0,0,0,0,0,0,0,0,0,0,0],"split_type":[0,0,0,0,0,0,0,0,0,0,0,0,0,0,0,0,0,0,0,0,0,0,0,0,0,0,0,0,0,0,0,0,0,0,0,0,0,0,0,0,0,0,0,0,0,0,0,0,0,0,0,0,0,0,0,0,0,0,0,0,0,0,0,0,0,0,0,0,0,0,0,0,0,0,0,0,0,0,0,0,0,0,0],"sum_hessian":[2.7886E4,1.3888E4,1.3998E4,6.927E3,6.961E3,1.1681E4,2.317E3,5.179E3,1.748E3,5.221E3,1.74E3,8.758E3,2.923E3,1.705E3,6.12E2,3.676E3,1.503E3,1.245E3,5.03E2,3.779E3,1.442E3,1.223E3,5.17E2,6.242E3,2.516E3,2.042E3,8.81E2,1.231E3,4.74E2,4.37E2,1.75E2,3.647E3,2.9E1,1.483E3,2E1,3.747E3,3.2E1,1.428E3,1.4E1,1.219E3,4E0,5.12E2,5E0,3.729E3,2.513E3,1.507E3,1.009E3,1.201E3,8.41E2,5.26E2,3.55E2,1.222E3,9E0,4.69E2,5E0,2.848E3,7.99E2,4.96E2,9.87E2,1.649E3,2.098E3,1.113E3,3.15E2,3.697E3,3.2E1,2.493E3,2E1,1.492E3,1.5E1,9.94E2,1.5E1,1.197E3,4E0,8.39E2,2E0,5.21E2,5E0,3.53E2,2E0,9.45E2,2.77E2,4.21E2,4.8E1],"tree_param":{"num_deleted":"0","num_feature":"9","num_nodes":"83","size_leaf_vector":"1"}},{"base_weights":[-8.234394E1,-1.03782E4,1.023627E4,-1.7681139E4,-3.1183218E3,1.423497E4,-9.899227E3,-1.5328946E4,-2.4510207E4,6.9634503E2,-1.4442499E4,1.9520773E4,-1.458834E3,-6.8180874E3,-1.8628037E4,-1.3756547E4,-1.9171809E4,-1.16743E3,-1.3582239E3,3.0803103E3,-5.273529E3,-1.2776116E4,-1.8446092E4,2.2903182E4,1.111818E4,9.2083093E2,-7.130697E3,-4.813557E3,-1.1713314E4,-8.5915985E2,-1.0962843E3,-1.3629524E4,-1.3738813E3,-1.8965395E4,-1.5345361E3,3.255874E3,-9.460506E2,-5.0627935E3,-1.120652E3,-6.360956E2,-1.1907715E3,-9.165135E2,-1.3354823E3,1.8765107E4,2.901574E4,7.750248E3,1.6022581E4,-2.1472664E3,5.605737E3,-9.764226E3,-3.2125168E3,-4.6532583E3,-1.1018983E3,-1.1424574E4,-1.3082108E3,-6.976899E2,-6.2190344E2,-9.276219E2,-9.885552E2,2.5235814E2,1.1883805E2,-2.759533E2,-1.7311412E2,9.5236273E2,-5.7626697E2,1.4651249E3,-3.2381284E2,4.0037967E2,-8.2531854E2,8.173925E2,-5.252897E2,-1.0406526E2,-9.123841E2,2.8340222E2,-6.657194E2,-4.831541E2,-1.02106683E3,-1.5481314E2,-7.8523285E2,-2.5248965E2,-1.6154402E2,-5.888516E2,-4.9550122E2],"categories":[],"categories_nodes":[],"categories_segments":[],"categories_sizes":[],"default_left":[0,0,0,0,0,0,0,0,0,0,0,0,0,0,0,0,0,0,0,0,0,0,0,0,0,0,0,0,0,0,0,0,0,0,0,0,0,0,0,0,0,0,0,0,0,0,0,0,0,0,0,0,0,0,0,0,0,0,0,0,0,0,0,0,0,0,0,0,0,0,0,0,0,0,0,0,0,0,0,0,0,0,0],"id":12,"left_children":[1,3,5,7,9,11,13,15,17,19,21,23,25,27,29,31,33,-1,-1,35,37,39,41,43,45,47,49,51,53,-1,-1,55,-1,57,-1,59,-1,61,-1,-1,-1,-1,-1,63,65,67,69,71,73,75,77,79,-1,81,-1,-1,-1,-1,-1,-1,-1,-1,-1,-1,-1,-1,-1,-1,-1,-1,-1,-1,-1,-1,-1,-1,-1,-1,-1,-1,-1,-1,-1],"loss_changes":[2.984146E12,7.453842E11,1.1296975E12,1.1221179E11,3.046421E11,9.7100916E11,6.2403117E10,3.1253987E10,4.8970465E9,7.5104125E10,1.1619631E10,2.4859954E11,3.982311E10,1.6821346E10,2.5105695E9,6.082855E9,3.0130176E9,0E0,0E0,1.4627598E10,5.326045E9,4.4978995E8,8.093696E6,1.5734197E11,4.1417834E10,2.9895057E10,8.966484E9,3.2714547E9,1.7831895E9,0E0,0E0,1.2455117E9,0E0,1.2828672E8,0E0,5.880701E9,0E0,1.0682614E9,0E0,0E0,0E0,0E0,0E0,3.2054575E10,2.5816728E10,9.451946E9,8.999043E9,1.296958E9,1.045676E9,3.6425728E8,4.6257075E8,6.6727936E8,0E0,1.4539571E8,0E0,0E0,0E0,0E0,0E0,0E0,0E0,0E0,0E0,0E0,0E0,0E0,0E0,0E0,0E0,0E0,0E0,0E0,0E0,0E0,0E0,0E0,0E0,0E0,0E0,0E0,0E0,0E0,0E0],"parents":[2147483647,0,0,1,1,2,2,3,3,4,4,5,5,6,6,7,7,8,8,9,9,10,10,11,11,12,12,13,13,14,14,15,15,16,16,19,19,20,20,21,21,22,22,23,23,24,24,25,25,26,26,27,27,28,28,31,31,33,33,35,35,37,37,43,43,44,44,45,45,46,46,47,47,48,48,49,49,50,50,51,51,53,53],"right_children":[2,4,6,8,10,12,14,16,18,20,22,24,26,28,30,32,34,-1,-1,36,38,40,42,44,46,48,50,52,54,-1,-1,56,-1,58,-1,60,-1,62,-1,-1,-1,-1,-1,64,66,68,70,72,74,76,78,80,-1,82,-1,-1,-1,-1,-1,-1,-1,-1,-1,-1,-1,-1,-1,-1,-1,-1,-1,-1,-1,-1,-1,-1,-1,-1,-1,-1,-1,-1,-1],"split_conditions":[7.010962E-2,-7.9767627E-1,1.5164194E0,1.7235993E0,1.7235993E0,1.7235993E0,1.7235993E0,9.948937E-1,9.948937E-1,9.948937E-1,9.948937E-1,9.948937E-1,9.948937E-1,9.948937E-1,9.948937E-1,1.11081085E1,1.11081085E1,-1.16743E3,-1.3582239E3,1.11081085E1,1.11081085E1,1.11081085E1,1.11081085E1,9.378955E-1,9.378955E-1,9.378955E-1,9.378955E-1,1.11081085E1,1.11081085E1,-8.5915985E2,-1.0962843E3,2.2700121E0,-1.3738813E3,1.7237297E0,-1.5345361E3,-7.310609E-1,-9.460506E2,2.2700121E0,-1.120652E3,-6.360956E2,-1.1907715E3,-9.165135E2,-1.3354823E3,1.11081085E1,1.11081085E1,1.11081085E1,1.11081085E1,1.11081085E1,1.11081085E1,1.11081085E1,1.11081085E1,2.2700121E0,-1.1018983E3,2.2700121E0,-1.3082108E3,-6.976899E2,-6.2190344E2,-9.276219E2,-9.885552E2,2.5235814E2,1.1883805E2,-2.759533E2,-1.7311412E2,9.5236273E2,-5.7626697E2,1.4651249E3,-3.2381284E2,4.0037967E2,-8.2531854E2,8.173925E2,-5.252897E2,-1.0406526E2,-9.123841E2,2.8340222E2,-6.657194E2,-4.831541E2,-1.02106683E3,-1.5481314E2,-7.8523285E2,-2.5248965E2,-1.6154402E2,-5.888516E2,-4.9550122E2],"split_indices":[0,0,0,7,7,7,7,1,1,1,1,1,1,1,1,8,8,0,0,8,8,8,8,0,0,0,0,8,8,0,0,3,0,5,0,2,0,3,0,0,0,0,0,8,8,8,8,8,8,8,8,3,0,3,0,0,0,0,0,0,0,0,0,0,0,0,0,0,0,0,0,0,0,0,0,0,0,0,0,0,0,0,0],"split_type":[0,0,0,0,0,0,0,0,0,0,0,0,0,0,0,0,0,0,0,0,0,0,0,0,0,0,0,0,0,0,0,0,0,0,0,0,0,0,0,0,0,0,0,0,0,0,0,0,0,0,0,0,0,0,0,0,0,0,0,0,0,0,0,0,0,0,0,0,0,0,0,0,0,0,0,0,0,0,0,0,0,0,0],"sum_hessian":[2.8087E4,1.4059E4,1.4028E4,7.008E3,7.051E3,1.1704E4,2.324E3,5.215E3,1.793E3,5.275E3,1.776E3,8.755E3,2.949E3,1.719E3,6.05E2,3.704E3,1.511E3,1.254E3,5.39E2,3.77E3,1.505E3,1.257E3,5.19E2,6.241E3,2.514E3,2.078E3,8.71E2,1.221E3,4.98E2,4.25E2,1.8E2,3.672E3,3.2E1,1.487E3,2.4E1,3.741E3,2.9E1,1.488E3,1.7E1,1.253E3,4E0,5.15E2,4E0,3.724E3,2.517E3,1.492E3,1.022E3,1.256E3,8.22E2,5.2E2,3.51E2,1.211E3,1E1,4.9E2,8E0,2.878E3,7.94E2,9.99E2,4.88E2,1.23E3,2.511E3,1.156E3,3.32E2,3.69E3,3.4E1,2.497E3,2E1,1.477E3,1.5E1,1.01E3,1.2E1,1.252E3,4E0,8.2E2,2E0,5.17E2,3E0,3.49E2,2E0,9.45E2,2.66E2,3.92E2,9.8E1],"tree_param":{"num_deleted":"0","num_feature":"9","num_nodes":"83","size_leaf_vector":"1"}},{"base_weights":[-8.220473E0,-9.807568E3,9.773675E3,-1.6756979E4,-2.9160264E3,1.3588025E4,-9.229109E3,-1.452698E4,-2.3307738E4,7.408249E2,-1.373883E4,1.8610152E4,-1.4264465E3,-6.3902715E3,-1.7558664E4,-1.3025432E4,-1.8177602E4,-1.1118237E3,-1.2879423E3,3.0109036E3,-5.004952E3,-1.2161124E4,-1.754997E4,2.1840492E4,1.0512642E4,8.7487994E2,-6.8703125E3,-4.5048574E3,-1.106299E4,-8.127279E2,-1.0447379E3,-1.2915227E4,-1.3025483E3,-1.8000209E4,-1.4451179E3,3.1691184E3,-9.1261005E2,-4.7918916E3,-1.0624058E3,-6.052543E2,-1.190301E3,-8.694344E2,-1.3419807E3,1.7925629E4,2.7691592E4,7.3611084E3,1.5170107E4,-2.0837795E3,5.3460386E3,-9.4651455E3,-3.0539463E3,-4.319697E3,-1.0895659E3,-1.084342E4,-1.253602E3,-6.6171545E2,-5.8908936E2,-8.80488E2,-9.3794055E2,8.815248E1,2.144741E2,-2.8852783E2,-1.9990248E2,9.077327E2,-5.554658E2,1.3962562E3,-3.0826108E2,3.801333E2,-7.706423E2,7.785341E2,-5.3193475E2,-1.0023431E2,-9.014853E2,2.7031195E2,-6.4352875E2,-4.6502975E2,-1.0978317E3,-1.4709567E2,-7.5905835E2,-2.3672264E2,-1.4385478E2,-5.566826E2,-4.8474786E2],"categories":[],"categories_nodes":[],"categories_segments":[],"categories_sizes":[],"default_left":[0,0,0,0,0,0,0,0,0,0,0,0,0,0,0,0,0,0,0,0,0,0,0,0,0,0,0,0,0,0,0,0,0,0,0,0,0,0,0,0,0,0,0,0,0,0,0,0,0,0,0,0,0,0,0,0,0,0,0,0,0,0,0,0,0,0,0,0,0,0,0,0,0,0,0,0,0,0,0,0,0,0,0],"id":13,"left_children":[1,3,5,7,9,11,13,15,17,19,21,23,25,27,29,31,33,-1,-1,35,37,39,41,43,45,47,49,51,53,-1,-1,55,-1,57,-1,59,-1,61,-1,-1,-1,-1,-1,63,65,67,69,71,73,75,77,79,-1,81,-1,-1,-1,-1,-1,-1,-1,-1,-1,-1,-1,-1,-1,-1,-1,-1,-1,-1,-1,-1,-1,-1,-1,-1,-1,-1,-1,-1,-1],"loss_changes":[2.688479E12,6.709682E11,1.0175008E12,1.0156809E11,2.7847665E11,8.8150586E11,5.538554E10,2.8305785E10,4.0748974E9,6.8623176E10,1.0471408E10,2.28912E11,3.672591E10,1.5385297E10,2.2533407E9,4.964811E9,2.3620485E9,0E0,0E0,1.2744006E10,5.0547343E9,5.3406925E8,3.0939546E8,1.4291986E11,3.6583735E10,2.7275358E10,8.59646E9,3.9068344E9,1.2753428E9,0E0,0E0,1.1691622E9,0E0,1.1186995E8,0E0,5.890388E9,0E0,1.1205366E9,0E0,0E0,0E0,0E0,0E0,2.5164906E10,2.000198E10,8.3305103E9,1.0586718E10,1.529025E9,9.699246E8,8.6052454E8,4.3630003E8,7.271076E8,0E0,5.772083E7,0E0,0E0,0E0,0E0,0E0,0E0,0E0,0E0,0E0,0E0,0E0,0E0,0E0,0E0,0E0,0E0,0E0,0E0,0E0,0E0,0E0,0E0,0E0,0E0,0E0,0E0,0E0,0E0,0E0],"parents":[2147483647,0,0,1,1,2,2,3,3,4,4,5,5,6,6,7,7,8,8,9,9,10,10,11,11,12,12,13,13,14,14,15,15,16,16,19,19,20,20,21,21,22,22,23,23,24,24,25,25,26,26,27,27,28,28,31,31,33,33,35,35,37,37,43,43,44,44,45,45,46,46,47,47,48,48,49,49,50,50,51,51,53,53],"right_children":[2,4,6,8,10,12,14,16,18,20,22,24,26,28,30,32,34,-1,-1,36,38,40,42,44,46,48,50,52,54,-1,-1,56,-1,58,-1,60,-1,62,-1,-1,-1,-1,-1,64,66,68,70,72,74,76,78,80,-1,82,-1,-1,-1,-1,-1,-1,-1,-1,-1,-1,-1,-1,-1,-1,-1,-1,-1,-1,-1,-1,-1,-1,-1,-1,-1,-1,-1,-1,-1],"split_conditions":[7.010962E-2,-7.9767627E-1,1.5164194E0,1.7235993E0,1.7235993E0,1.7235993E0,1.7235993E0,9.948937E-1,9.948937E-1,9.948937E-1,9.948937E-1,9.948937E-1,9.948937E-1,9.948937E-1,9.948937E-1,1.11081085E1,1.11081085E1,-1.1118237E3,-1.2879423E3,1.11081085E1,1.11081085E1,1.11081085E1,1.11081085E1,9.378955E-1,9.378955E-1,9.378955E-1,9.378955E-1,1.11081085E1,1.11081085E1,-8.127279E2,-1.0447379E3,2.2700121E0,-1.3025483E3,1.7237297E0,-1.4451179E3,5.67294E-1,-9.1261005E2,5.67294E-1,-1.0624058E3,-6.052543E2,-1.190301E3,-8.694344E2,-1.3419807E3,1.11081085E1,1.11081085E1,1.11081085E1,1.11081085E1,1.11081085E1,1.11081085E1,1.11081085E1,1.11081085E1,2.2700121E0,-1.0895659E3,2.2700121E0,-1.253602E3,-6.6171545E2,-5.8908936E2,-8.80488E2,-9.3794055E2,8.815248E1,2.144741E2,-2.8852783E2,-1.9990248E2,9.077327E2,-5.554658E2,1.3962562E3,-3.0826108E2,3.801333E2,-7.706423E2,7.785341E2,-5.3193475E2,-1.0023431E2,-9.014853E2,2.7031195E2,-6.4352875E2,-4.6502975E2,-1.0978317E3,-1.4709567E2,-7.5905835E2,-2.3672264E2,-1.4385478E2,-5.566826E2,-4.8474786E2],"split_indices":[0,0,0,7,7,7,7,1,1,1,1,1,1,1,1,8,8,0,0,8,8,8,8,0,0,0,0,8,8,0,0,3,0,5,0,6,0,6,0,0,0,0,0,8,8,8,8,8,8,8,8,3,0,3,0,0,0,0,0,0,0,0,0,0,0,0,0,0,0,0,0,0,0,0,0,0,0,0,0,0,0,0,0],"split_type":[0,0,0,0,0,0,0,0,0,0,0,0,0,0,0,0,0,0,0,0,0,0,0,0,0,0,0,0,0,0,0,0,0,0,0,0,0,0,0,0,0,0,0,0,0,0,0,0,0,0,0,0,0,0,0,0,0,0,0,0,0,0,0,0,0,0,0,0,0,0,0,0,0,0,0,0,0,0,0,0,0,0,0],"sum_hessian":[2.8045E4,1.401E4,1.4035E4,6.975E3,7.035E3,1.1689E4,2.346E3,5.206E3,1.769E3,5.259E3,1.776E3,8.759E3,2.93E3,1.751E3,5.95E2,3.692E3,1.514E3,1.238E3,5.31E2,3.77E3,1.489E3,1.259E3,5.17E2,6.26E3,2.499E3,2.06E3,8.7E2,1.249E3,5.02E2,4.32E2,1.63E2,3.663E3,2.9E1,1.492E3,2.2E1,3.743E3,2.7E1,1.471E3,1.8E1,1.255E3,4E0,5.11E2,6E0,3.753E3,2.507E3,1.492E3,1.007E3,1.24E3,8.2E2,5.17E2,3.53E2,1.237E3,1.2E1,4.96E2,6E0,2.85E3,8.13E2,1.001E3,4.91E2,1.661E3,2.082E3,6.56E2,8.15E2,3.724E3,2.9E1,2.49E3,1.7E1,1.477E3,1.5E1,9.92E2,1.5E1,1.235E3,5E0,8.18E2,2E0,5.12E2,5E0,3.51E2,2E0,9.59E2,2.78E2,3.89E2,1.07E2],"tree_param":{"num_deleted":"0","num_feature":"9","num_nodes":"83","size_leaf_vector":"1"}},{"base_weights":[4.5801083E1,-9.315164E3,9.37482E3,-1.592425E4,-2.7965117E3,1.2972215E4,-8.705521E3,-1.3836303E4,-2.2053824E4,6.654986E2,-1.3079719E4,1.7702791E4,-1.38334E3,-6.038631E3,-1.6709557E4,-1.2424649E4,-1.7328275E4,-1.0524984E3,-1.2203877E3,2.8026177E3,-4.7905674E3,-1.1566953E4,-1.6639168E4,2.0718078E4,9.92771E3,7.726269E2,-6.453733E3,-4.311827E3,-1.0345312E4,-7.725389E2,-9.902412E2,-1.2298815E4,-1.2450302E3,-1.7194078E4,-1.3417117E3,2.9700698E3,-8.81525E2,-4.637792E3,-1.0266724E3,-5.756211E2,-1.142689E3,-8.242965E2,-1.2844672E3,1.6955518E4,2.6253613E4,6.813948E3,1.4438526E4,-1.9574578E3,4.9788486E3,-8.82038E3,-2.8404673E3,-4.138242E3,-1.0275424E3,-1.015348E4,-1.1216298E3,-6.300218E2,-5.604359E2,-8.4937933E2,-9.3652734E2,1.1743096E2,2.57433E2,-2.8177948E2,-1.9131445E2,8.600132E2,-5.2865814E2,1.3234032E3,-2.8164664E2,3.5304626E2,-7.297214E2,7.408901E2,-4.9894293E2,-9.406886E1,-8.6392346E2,2.5189021E2,-6.2207776E2,-4.346131E2,-1.01902875E3,-1.364338E2,-7.3375653E2,-2.2535933E2,-1.3844817E2,-5.2515735E2,-4.4929453E2],"categories":[],"categories_nodes":[],"categories_segments":[],"categories_sizes":[],"default_left":[0,0,0,0,0,0,0,0,0,0,0,0,0,0,0,0,0,0,0,0,0,0,0,0,0,0,0,0,0,0,0,0,0,0,0,0,0,0,0,0,0,0,0,0,0,0,0,0,0,0,0,0,0,0,0,0,0,0,0,0,0,0,0,0,0,0,0,0,0,0,0,0,0,0,0,0,0,0,0,0,0,0,0],"id":14,"left_children":[1,3,5,7,9,11,13,15,17,19,21,23,25,27,29,31,33,-1,-1,35,37,39,41,43,45,47,49,51,53,-1,-1,55,-1,57,-1,59,-1,61,-1,-1,-1,-1,-1,63,65,67,69,71,73,75,77,79,-1,81,-1,-1,-1,-1,-1,-1,-1,-1,-1,-1,-1,-1,-1,-1,-1,-1,-1,-1,-1,-1,-1,-1,-1,-1,-1,-1,-1,-1,-1],"loss_changes":[2.4527115E12,6.039268E11,9.1506056E11,8.878319E10,2.5131313E11,7.968128E11,4.9741742E10,2.5393234E10,3.6616274E9,6.1602935E10,9.381347E9,2.0668875E11,3.1805008E10,1.2992082E10,1.965523E9,5.5070556E9,1.443201E9,0E0,0E0,1.3040624E10,3.4811924E9,5.068882E8,3.087401E8,1.3197771E11,3.4566177E10,2.3458732E10,7.397495E9,3.4469786E9,9.339044E8,0E0,0E0,1.0647634E9,0E0,1.4978253E8,0E0,5.0866463E9,0E0,1.1719578E9,0E0,0E0,0E0,0E0,0E0,2.5703612E10,1.7729716E10,7.8331863E9,9.473573E9,1.4117115E9,8.884101E8,5.989253E8,4.163963E8,6.1445734E8,0E0,1.0771251E8,0E0,0E0,0E0,0E0,0E0,0E0,0E0,0E0,0E0,0E0,0E0,0E0,0E0,0E0,0E0,0E0,0E0,0E0,0E0,0E0,0E0,0E0,0E0,0E0,0E0,0E0,0E0,0E0,0E0],"parents":[2147483647,0,0,1,1,2,2,3,3,4,4,5,5,6,6,7,7,8,8,9,9,10,10,11,11,12,12,13,13,14,14,15,15,16,16,19,19,20,20,21,21,22,22,23,23,24,24,25,25,26,26,27,27,28,28,31,31,33,33,35,35,37,37,43,43,44,44,45,45,46,46,47,47,48,48,49,49,50,50,51,51,53,53],"right_children":[2,4,6,8,10,12,14,16,18,20,22,24,26,28,30,32,34,-1,-1,36,38,40,42,44,46,48,50,52,54,-1,-1,56,-1,58,-1,60,-1,62,-1,-1,-1,-1,-1,64,66,68,70,72,74,76,78,80,-1,82,-1,-1,-1,-1,-1,-1,-1,-1,-1,-1,-1,-1,-1,-1,-1,-1,-1,-1,-1,-1,-1,-1,-1,-1,-1,-1,-1,-1,-1],"split_conditions":[7.010962E-2,-7.9767627E-1,1.5164194E0,1.7235993E0,1.7235993E0,1.7235993E0,1.7235993E0,9.948937E-1,9.948937E-1,9.948937E-1,9.948937E-1,9.948937E-1,9.948937E-1,9.948937E-1,9.948937E-1,1.11081085E1,1.11081085E1,-1.0524984E3,-1.2203877E3,1.11081085E1,1.11081085E1,1.11081085E1,1.11081085E1,9.378955E-1,9.378955E-1,9.378955E-1,9.378955E-1,1.11081085E1,1.11081085E1,-7.725389E2,-9.902412E2,-1.7289384E-1,-1.2450302E3,1.58695E0,-1.3417117E3,2.2943988E0,-8.81525E2,5.67294E-1,-1.0266724E3,-5.756211E2,-1.142689E3,-8.242965E2,-1.2844672E3,1.11081085E1,1.11081085E1,1.11081085E1,1.11081085E1,1.11081085E1,1.11081085E1,1.11081085E1,1.11081085E1,-1.7289384E-1,-1.0275424E3,-1.7289384E-1,-1.1216298E3,-6.300218E2,-5.604359E2,-8.4937933E2,-9.3652734E2,1.1743096E2,2.57433E2,-2.8177948E2,-1.9131445E2,8.600132E2,-5.2865814E2,1.3234032E3,-2.8164664E2,3.5304626E2,-7.297214E2,7.408901E2,-4.9894293E2,-9.406886E1,-8.6392346E2,2.5189021E2,-6.2207776E2,-4.346131E2,-1.01902875E3,-1.364338E2,-7.3375653E2,-2.2535933E2,-1.3844817E2,-5.2515735E2,-4.4929453E2],"split_indices":[0,0,0,7,7,7,7,1,1,1,1,1,1,1,1,8,8,0,0,8,8,8,8,0,0,0,0,8,8,0,0,6,0,2,0,6,0,6,0,0,0,0,0,8,8,8,8,8,8,8,8,6,0,6,0,0,0,0,0,0,0,0,0,0,0,0,0,0,0,0,0,0,0,0,0,0,0,0,0,0,0,0,0],"split_type":[0,0,0,0,0,0,0,0,0,0,0,0,0,0,0,0,0,0,0,0,0,0,0,0,0,0,0,0,0,0,0,0,0,0,0,0,0,0,0,0,0,0,0,0,0,0,0,0,0,0,0,0,0,0,0,0,0,0,0,0,0,0,0,0,0,0,0,0,0,0,0,0,0,0,0,0,0,0,0,0,0,0,0],"sum_hessian":[2.8084E4,1.4018E4,1.4066E4,6.96E3,7.058E3,1.1732E4,2.334E3,5.194E3,1.766E3,5.281E3,1.777E3,8.824E3,2.908E3,1.752E3,5.82E2,3.702E3,1.492E3,1.245E3,5.21E2,3.795E3,1.486E3,1.25E3,5.27E2,6.357E3,2.467E3,2.041E3,8.67E2,1.252E3,5E2,4.18E2,1.64E2,3.667E3,3.5E1,1.474E3,1.8E1,3.765E3,3E1,1.473E3,1.3E1,1.246E3,4E0,5.21E2,6E0,3.787E3,2.57E3,1.461E3,1.006E3,1.238E3,8.03E2,5.23E2,3.44E2,1.24E3,1.2E1,4.94E2,6E0,2.864E3,8.03E2,1.31E3,1.64E2,2.931E3,8.34E2,6.58E2,8.15E2,3.754E3,3.3E1,2.553E3,1.7E1,1.445E3,1.6E1,9.91E2,1.5E1,1.233E3,5E0,8.01E2,2E0,5.19E2,4E0,3.42E2,2E0,9.75E2,2.65E2,3.74E2,1.2E2],"tree_param":{"num_deleted":"0","num_feature":"9","num_nodes":"83","size_leaf_vector":"1"}},{"base_weights":[8.591162E1,3.5119763E3,-1.0130551E4,-2.8581062E3,7.0643438E3,-1.365841E4,-7.1823667E3,-8.7335486E2,-7.741982E3,9.382944E3,1.0986903E3,-1.2282805E4,-1.6879756E4,-5.4676245E3,-1.1281102E4,-6.984602E2,-9.341181E2,-7.476058E3,-1.069708E3,6.6652686E3,1.2392229E4,-1.1076313E3,3.577239E3,-6.1190625E2,-1.2428739E3,-8.368214E2,-1.5058695E3,-5.4098623E3,-1.026125E3,-5.581518E2,-1.1705834E3,-1.4515105E3,-1.3468391E2,-4.0983627E2,-3.465752E2,8.778763E3,1.4351923E3,1.250649E4,-5.4671185E2,7.671147E2,-5.5539385E3,3.7417385E3,-7.3912E2,-2.8610043E2,-5.2218145E3,-1.1067106E2,-6.3194683E1,-1.1932509E1,1.4095904E1,4.5229718E2,-6.622281E2,1.0499865E2,6.3718426E1,5.7153876E2,7.076049E2,5.456391E1,-8.598146E2,-3.014805E2,-2.5146265E2,1.35734E2,2.6171008E2,-2.4835477E2,-2.6682028E2],"categories":[],"categories_nodes":[],"categories_segments":[],"categories_sizes":[],"default_left":[0,0,0,0,0,0,0,0,0,0,0,0,0,0,0,0,0,0,0,0,0,0,0,0,0,0,0,0,0,0,0,0,0,0,0,0,0,0,0,0,0,0,0,0,0,0,0,0,0,0,0,0,0,0,0,0,0,0,0,0,0,0,0],"id":15,"left_children":[1,3,5,7,9,11,13,15,17,19,21,23,25,27,29,31,-1,33,-1,35,37,39,41,-1,-1,-1,-1,43,-1,-1,-1,45,47,-1,-1,49,51,53,-1,55,57,59,-1,-1,61,-1,-1,-1,-1,-1,-1,-1,-1,-1,-1,-1,-1,-1,-1,-1,-1,-1,-1],"loss_changes":[9.8219904E11,4.7554334E11,7.3196175E10,7.292546E10,1.8659679E11,1.4003864E10,2.693392E10,1.6653712E10,7.7326336E9,7.936921E10,2.0658393E10,9.6046285E8,1.3116703E9,2.2456074E9,1.3599048E9,2.2499297E9,0E0,7.8065664E8,0E0,5.64388E10,1.2421169E10,1.6667318E10,5.4281585E9,0E0,0E0,0E0,0E0,1.2866355E8,0E0,0E0,0E0,3.215493E8,1.3139094E8,0E0,0E0,2.1520646E10,1.5459226E8,7.958102E9,0E0,8.2118385E9,1.1767398E8,2.6897326E9,0E0,0E0,2.3023616E7,0E0,0E0,0E0,0E0,0E0,0E0,0E0,0E0,0E0,0E0,0E0,0E0,0E0,0E0,0E0,0E0,0E0,0E0],"parents":[2147483647,0,0,1,1,2,2,3,3,4,4,5,5,6,6,7,7,8,8,9,9,10,10,11,11,12,12,13,13,14,14,15,15,17,17,19,19,20,20,21,21,22,22,27,27,31,31,32,32,35,35,36,36,37,37,39,39,40,40,41,41,44,44],"right_children":[2,4,6,8,10,12,14,16,18,20,22,24,26,28,30,32,-1,34,-1,36,38,40,42,-1,-1,-1,-1,44,-1,-1,-1,46,48,-1,-1,50,52,54,-1,56,58,60,-1,-1,62,-1,-1,-1,-1,-1,-1,-1,-1,-1,-1,-1,-1,-1,-1,-1,-1,-1,-1],"split_conditions":[1.7235993E0,-1.7289384E-1,-1.7289384E-1,9.948937E-1,9.948937E-1,9.948937E-1,9.948937E-1,1.11081085E1,1.11081085E1,1.1429956E0,1.1429956E0,1.11081085E1,1.11081085E1,1.11081085E1,1.11081085E1,8.4110475E-1,-9.341181E2,8.4110475E-1,-1.069708E3,2.2700121E0,1.11081085E1,2.2700121E0,1.11081085E1,-6.1190625E2,-1.2428739E3,-8.368214E2,-1.5058695E3,-5.033196E-1,-1.026125E3,-5.581518E2,-1.1705834E3,-1.002724E0,4.954893E-1,-4.0983627E2,-3.465752E2,1.11081085E1,-1.002724E0,2.2700121E0,-5.4671185E2,1.11081085E1,1.4942982E0,2.2700121E0,-7.3912E2,-2.8610043E2,-3.915167E-3,-1.1067106E2,-6.3194683E1,-1.1932509E1,1.4095904E1,4.5229718E2,-6.622281E2,1.0499865E2,6.3718426E1,5.7153876E2,7.076049E2,5.456391E1,-8.598146E2,-3.014805E2,-2.5146265E2,1.35734E2,2.6171008E2,-2.4835477E2,-2.6682028E2],"split_indices":[7,6,6,1,1,1,1,8,8,6,6,8,8,8,8,4,0,4,0,3,8,3,8,0,0,0,0,1,0,0,0,1,1,0,0,8,1,3,0,8,1,3,0,0,1,0,0,0,0,0,0,0,0,0,0,0,0,0,0,0,0,0,0],"split_type":[0,0,0,0,0,0,0,0,0,0,0,0,0,0,0,0,0,0,0,0,0,0,0,0,0,0,0,0,0,0,0,0,0,0,0,0,0,0,0,0,0,0,0,0,0,0,0,0,0,0,0,0,0,0,0,0,0,0,0,0,0,0,0],"sum_hessian":[2.8059E4,2.1013E4,7.046E3,7.523E3,1.349E4,3.206E3,3.84E3,5.35E3,2.173E3,9.714E3,3.776E3,2.25E3,9.56E2,2.709E3,1.131E3,5.299E3,5.1E1,2.133E3,4E1,5.106E3,4.608E3,1.998E3,1.778E3,2.244E3,6E0,9.48E2,8E0,2.7E3,9E0,1.122E3,9E0,2.268E3,3.031E3,9.12E2,1.221E3,3.636E3,1.47E3,4.586E3,2.2E1,1.406E3,5.92E2,1.763E3,1.5E1,1.004E3,1.696E3,4.46E2,1.822E3,2.426E3,6.05E2,3.593E3,4.3E1,2.84E2,1.186E3,2.778E3,1.808E3,1.382E3,2.4E1,3.05E2,2.87E2,1.046E3,7.17E2,5.4E2,1.156E3],"tree_param":{"num_deleted":"0","num_feature":"9","num_nodes":"63","size_leaf_vector":"1"}},{"base_weights":[5.1360955E0,3.2471396E3,-9.666666E3,-2.8983777E3,6.669357E3,-1.3052892E4,-6.797097E3,-1.1065625E3,-7.2369824E3,8.906976E3,9.7089185E2,-1.182963E4,-1.5932171E4,-5.225366E3,-1.0622785E4,-9.091869E2,-9.0718115E2,-6.995627E3,-1.0050659E3,6.4184946E3,1.1695194E4,-8.249394E2,3.0627595E3,-1.1800067E4,-1.1445604E3,-7.9293854E2,-1.249206E3,-5.175054E3,-9.877597E2,-1.0506654E4,-1.1184828E3,-6.697995E2,-2.2621492E3,-7.5618896E3,-6.5700845E3,1.29465E3,8.50787E3,1.1817132E4,-5.492394E2,-4.6735747E3,7.82548E2,3.2273433E3,-7.0105676E2,-1.1688798E4,-6.217471E2,-5.2749097E3,-4.7727495E3,-1.09472E4,-5.097754E2,-5.5689716E1,-2.2530592E1,-1.515195E2,-1.03371704E2,-3.6313446E2,-4.049259E2,-2.9818378E2,-3.330019E2,3.520577E1,7.23153E1,4.3876392E2,-6.0777466E2,5.442725E2,6.651866E2,-2.226739E2,-2.4391234E2,5.097207E1,-8.097228E2,1.893456E2,5.6805927E1,-6.200805E2,-5.772944E2,-2.5185222E2,-2.6805515E2,-2.2849364E2,-2.616013E2,-5.0956747E2,-6.0794635E2],"categories":[],"categories_nodes":[],"categories_segments":[],"categories_sizes":[],"default_left":[0,0,0,0,0,0,0,0,0,0,0,0,0,0,0,0,0,0,0,0,0,0,0,0,0,0,0,0,0,0,0,0,0,0,0,0,0,0,0,0,0,0,0,0,0,0,0,0,0,0,0,0,0,0,0,0,0,0,0,0,0,0,0,0,0,0,0,0,0,0,0,0,0,0,0,0,0],"id":16,"left_children":[1,3,5,7,9,11,13,15,17,19,21,23,25,27,29,31,-1,33,-1,35,37,39,41,43,-1,-1,-1,45,-1,47,-1,49,51,53,55,57,59,61,-1,63,65,67,-1,69,-1,71,73,75,-1,-1,-1,-1,-1,-1,-1,-1,-1,-1,-1,-1,-1,-1,-1,-1,-1,-1,-1,-1,-1,-1,-1,-1,-1,-1,-1,-1,-1],"loss_changes":[8.8141765E11,4.4279123E11,6.8484202E10,5.8537824E10,1.7242299E11,1.1209081E10,2.2926E10,1.7910065E10,6.693208E9,6.729715E10,1.4330356E10,4.7385805E8,2.4295834E8,1.8795807E9,1.2819333E9,1.7056676E9,0E0,4.7128576E8,0E0,5.4941024E10,1.2790399E10,1.2704814E10,4.9995244E9,1.507328E7,0E0,0E0,0E0,8.341094E7,0E0,3.957555E7,0E0,4.3548365E8,1.1220864E8,8.905523E7,2.8033024E7,1.3224422E8,2.0252852E10,6.162612E9,0E0,5.527552E6,5.8440095E9,2.0388393E9,0E0,5.5361536E7,0E0,1.7195008E7,2.7150336E7,2.818212E8,0E0,0E0,0E0,0E0,0E0,0E0,0E0,0E0,0E0,0E0,0E0,0E0,0E0,0E0,0E0,0E0,0E0,0E0,0E0,0E0,0E0,0E0,0E0,0E0,0E0,0E0,0E0,0E0,0E0],"parents":[2147483647,0,0,1,1,2,2,3,3,4,4,5,5,6,6,7,7,8,8,9,9,10,10,11,11,12,12,13,13,14,14,15,15,17,17,19,19,20,20,21,21,22,22,23,23,27,27,29,29,31,31,32,32,33,33,34,34,35,35,36,36,37,37,39,39,40,40,41,41,43,43,45,45,46,46,47,47],"right_children":[2,4,6,8,10,12,14,16,18,20,22,24,26,28,30,32,-1,34,-1,36,38,40,42,44,-1,-1,-1,46,-1,48,-1,50,52,54,56,58,60,62,-1,64,66,68,-1,70,-1,72,74,76,-1,-1,-1,-1,-1,-1,-1,-1,-1,-1,-1,-1,-1,-1,-1,-1,-1,-1,-1,-1,-1,-1,-1,-1,-1,-1,-1,-1,-1],"split_conditions":[1.7235993E0,-1.7289384E-1,-1.7289384E-1,9.948937E-1,9.948937E-1,9.948937E-1,9.948937E-1,1.11081085E1,1.11081085E1,1.1429956E0,1.1429956E0,1.11081085E1,1.11081085E1,1.11081085E1,1.11081085E1,1.58695E0,-9.0718115E2,8.4110475E-1,-1.0050659E3,-7.310609E-1,1.11081085E1,-7.310609E-1,1.11081085E1,1.0074472E0,-1.1445604E3,-7.9293854E2,-1.249206E3,4.954893E-1,-9.877597E2,1.3819318E-1,-1.1184828E3,8.4110475E-1,-1.002724E0,1.58695E0,-4.4130954E-1,-1.002724E0,1.11081085E1,2.2700121E0,-5.492394E2,-1.0208123E0,1.11081085E1,1.58695E0,-7.0105676E2,-4.4130954E-1,-6.217471E2,-1.5155818E-1,7.176959E-1,-1.5155818E-1,-5.097754E2,-5.5689716E1,-2.2530592E1,-1.515195E2,-1.03371704E2,-3.6313446E2,-4.049259E2,-2.9818378E2,-3.330019E2,3.520577E1,7.23153E1,4.3876392E2,-6.0777466E2,5.442725E2,6.651866E2,-2.226739E2,-2.4391234E2,5.097207E1,-8.097228E2,1.893456E2,5.6805927E1,-6.200805E2,-5.772944E2,-2.5185222E2,-2.6805515E2,-2.2849364E2,-2.616013E2,-5.0956747E2,-6.0794635E2],"split_indices":[7,6,6,1,1,1,1,8,8,6,6,8,8,8,8,2,0,4,0,2,8,2,8,2,0,0,0,1,0,2,0,4,1,2,2,1,8,3,0,2,8,2,0,2,0,2,2,2,0,0,0,0,0,0,0,0,0,0,0,0,0,0,0,0,0,0,0,0,0,0,0,0,0,0,0,0,0],"split_type":[0,0,0,0,0,0,0,0,0,0,0,0,0,0,0,0,0,0,0,0,0,0,0,0,0,0,0,0,0,0,0,0,0,0,0,0,0,0,0,0,0,0,0,0,0,0,0,0,0,0,0,0,0,0,0,0,0,0,0,0,0,0,0,0,0,0,0,0,0,0,0,0,0,0,0,0,0],"sum_hessian":[2.8108E4,2.1052E4,7.056E3,7.53E3,1.3522E4,3.235E3,3.821E3,5.33E3,2.2E3,9.709E3,3.813E3,2.274E3,9.61E2,2.71E3,1.111E3,5.27E3,6E1,2.161E3,3.9E1,5.132E3,4.577E3,2.052E3,1.761E3,2.27E3,4E0,9.56E2,5E0,2.702E3,8E0,1.102E3,9E0,4.479E3,7.91E2,9.2E2,1.241E3,1.487E3,3.645E3,4.553E3,2.4E1,6.04E2,1.448E3,1.745E3,1.6E1,1.948E3,3.22E2,2.155E3,5.47E2,4.42E2,6.6E2,1.479E3,3E3,1.57E2,6.34E2,6E2,3.2E2,1.69E2,1.072E3,3.05E2,1.182E3,3.599E3,4.6E1,2.804E3,1.749E3,3.02E2,3.02E2,1.429E3,1.9E1,1.376E3,3.69E2,3.11E2,1.637E3,5.89E2,1.566E3,3.87E2,1.6E2,2.78E2,1.64E2],"tree_param":{"num_deleted":"0","num_feature":"9","num_nodes":"77","size_leaf_vector":"1"}},{"base_weights":[1.7983463E1,-8.841527E3,8.767782E3,-1.4613828E4,-3.1077488E3,1.2129856E4,-7.8670303E3,-1.28893545E4,-1.966515E4,-2.2603473E2,-1.1639658E4,1.6301869E4,-3.135779E2,-5.539312E3,-1.4621723E4,-1.1736991E4,-1.57103E4,-9.4351514E2,-1.078395E3,1.5453578E3,-4.7035684E3,-1.0389286E4,-1.4662262E4,1.2562687E4,2.177706E4,-3.0468486E3,3.8499983E3,-4.042008E3,-9.178172E3,-6.7722064E2,-8.5751105E2,-1.1631726E4,-1.1014073E3,-1.5598597E4,-1.2245614E3,1.6851292E3,-7.595691E2,-4.55619E3,-8.933535E2,-5.1704736E2,-1.0164262E3,-7.271559E2,-1.114316E3,1.5105123E4,6.309674E3,2.4677414E4,1.4343249E4,-1.2735486E3,-7.214546E3,5.8593354E3,-9.9659393E2,-3.921306E3,-8.6295197E2,-8.975451E3,-1.0413812E3,-5.9259717E2,-5.425688E2,-7.9016626E2,-7.407583E2,1.5316173E2,5.0806503E1,-2.4598564E2,-1.5952974E2,7.656282E2,-4.2018097E2,3.2672595E2,-6.320273E2,1.245726E3,-1.8664037E2,7.332313E2,-3.8583624E2,-6.0962788E1,-7.247172E2,-3.56487E2,-8.2814667E2,2.9416888E2,-3.47576E2,-4.4606087E1,-6.2522894E2,-2.122939E2,-1.3926042E2,-4.6023837E2,-4.0635507E2],"categories":[],"categories_nodes":[],"categories_segments":[],"categories_sizes":[],"default_left":[0,0,0,0,0,0,0,0,0,0,0,0,0,0,0,0,0,0,0,0,0,0,0,0,0,0,0,0,0,0,0,0,0,0,0,0,0,0,0,0,0,0,0,0,0,0,0,0,0,0,0,0,0,0,0,0,0,0,0,0,0,0,0,0,0,0,0,0,0,0,0,0,0,0,0,0,0,0,0,0,0,0,0],"id":17,"left_children":[1,3,5,7,9,11,13,15,17,19,21,23,25,27,29,31,33,-1,-1,35,37,39,41,43,45,47,49,51,53,-1,-1,55,-1,57,-1,59,-1,61,-1,-1,-1,-1,-1,63,65,67,69,71,73,75,77,79,-1,81,-1,-1,-1,-1,-1,-1,-1,-1,-1,-1,-1,-1,-1,-1,-1,-1,-1,-1,-1,-1,-1,-1,-1,-1,-1,-1,-1,-1,-1],"loss_changes":[2.1649489E12,4.5924306E11,7.859325E11,5.9982217E10,1.7119334E11,6.068298E11,3.707252E10,1.6582967E10,2.2517514E9,4.12985E10,6.4917996E9,1.7894474E11,3.3423942E10,9.546781E9,1.4157087E9,3.715203E9,1.0824253E9,0E0,0E0,8.753585E9,2.7820544E9,3.88907E8,1.4096794E8,8.263729E10,7.6208144E10,1.3094306E10,1.1341384E10,1.923287E9,1.02219366E9,0E0,0E0,4.953211E8,0E0,2.719744E6,0E0,3.4090301E9,0E0,7.095808E8,0E0,0E0,0E0,0E0,0E0,1.8167366E10,6.499459E9,1.7290625E10,7.195656E9,8.759832E8,3.0130176E8,2.9437747E8,4.0001878E8,4.4468224E8,0E0,2.3433216E7,0E0,0E0,0E0,0E0,0E0,0E0,0E0,0E0,0E0,0E0,0E0,0E0,0E0,0E0,0E0,0E0,0E0,0E0,0E0,0E0,0E0,0E0,0E0,0E0,0E0,0E0,0E0,0E0,0E0],"parents":[2147483647,0,0,1,1,2,2,3,3,4,4,5,5,6,6,7,7,8,8,9,9,10,10,11,11,12,12,13,13,14,14,15,15,16,16,19,19,20,20,21,21,22,22,23,23,24,24,25,25,26,26,27,27,28,28,31,31,33,33,35,35,37,37,43,43,44,44,45,45,46,46,47,47,48,48,49,49,50,50,51,51,53,53],"right_children":[2,4,6,8,10,12,14,16,18,20,22,24,26,28,30,32,34,-1,-1,36,38,40,42,44,46,48,50,52,54,-1,-1,56,-1,58,-1,60,-1,62,-1,-1,-1,-1,-1,64,66,68,70,72,74,76,78,80,-1,82,-1,-1,-1,-1,-1,-1,-1,-1,-1,-1,-1,-1,-1,-1,-1,-1,-1,-1,-1,-1,-1,-1,-1,-1,-1,-1,-1,-1,-1],"split_conditions":[7.010962E-2,-7.9767627E-1,1.5164194E0,1.7235993E0,1.7235993E0,1.7235993E0,1.7235993E0,9.948937E-1,9.948937E-1,9.948937E-1,9.948937E-1,9.378955E-1,9.378955E-1,9.948937E-1,9.948937E-1,1.11081085E1,1.11081085E1,-9.4351514E2,-1.078395E3,1.11081085E1,1.11081085E1,1.11081085E1,1.11081085E1,9.948937E-1,9.948937E-1,9.948937E-1,9.948937E-1,1.11081085E1,1.11081085E1,-6.7722064E2,-8.5751105E2,2.2700121E0,-1.1014073E3,2.2700121E0,-1.2245614E3,-7.310609E-1,-7.595691E2,2.2700121E0,-8.933535E2,-5.1704736E2,-1.0164262E3,-7.271559E2,-1.114316E3,1.11081085E1,1.11081085E1,1.11081085E1,1.11081085E1,1.11081085E1,1.11081085E1,1.11081085E1,1.11081085E1,2.2700121E0,-8.6295197E2,2.2700121E0,-1.0413812E3,-5.9259717E2,-5.425688E2,-7.9016626E2,-7.407583E2,1.5316173E2,5.0806503E1,-2.4598564E2,-1.5952974E2,7.656282E2,-4.2018097E2,3.2672595E2,-6.320273E2,1.245726E3,-1.8664037E2,7.332313E2,-3.8583624E2,-6.0962788E1,-7.247172E2,-3.56487E2,-8.2814667E2,2.9416888E2,-3.47576E2,-4.4606087E1,-6.2522894E2,-2.122939E2,-1.3926042E2,-4.6023837E2,-4.0635507E2],"split_indices":[0,0,0,7,7,7,7,1,1,1,1,0,0,1,1,8,8,0,0,8,8,8,8,1,1,1,1,8,8,0,0,3,0,3,0,2,0,3,0,0,0,0,0,8,8,8,8,8,8,8,8,3,0,3,0,0,0,0,0,0,0,0,0,0,0,0,0,0,0,0,0,0,0,0,0,0,0,0,0,0,0,0,0],"split_type":[0,0,0,0,0,0,0,0,0,0,0,0,0,0,0,0,0,0,0,0,0,0,0,0,0,0,0,0,0,0,0,0,0,0,0,0,0,0,0,0,0,0,0,0,0,0,0,0,0,0,0,0,0,0,0,0,0,0,0,0,0,0,0,0,0,0,0,0,0,0,0,0,0,0,0,0,0,0,0,0,0,0,0],"sum_hessian":[2.7926E4,1.3876E4,1.405E4,6.914E3,6.962E3,1.1688E4,2.362E3,5.157E3,1.757E3,5.205E3,1.757E3,8.753E3,2.935E3,1.758E3,6.04E2,3.665E3,1.492E3,1.247E3,5.1E2,3.73E3,1.475E3,1.246E3,5.11E2,5.203E3,3.55E3,1.772E3,1.163E3,1.247E3,5.11E2,4.28E2,1.76E2,3.63E3,3.5E1,1.476E3,1.6E1,3.7E3,3E1,1.46E3,1.5E1,1.242E3,4E0,5.06E2,5E0,3.698E3,1.505E3,2.552E3,9.98E2,1.244E3,5.28E2,8.22E2,3.41E2,1.237E3,1E1,5.04E2,7E0,2.82E3,8.1E2,1.155E3,3.21E2,1.208E3,2.492E3,1.151E3,3.09E2,3.666E3,3.2E1,1.488E3,1.7E1,2.531E3,2.1E1,9.84E2,1.4E1,1.24E3,4E0,5.25E2,3E0,8.21E2,1E0,3.39E2,2E0,9.6E2,2.77E2,3.89E2,1.15E2],"tree_param":{"num_deleted":"0","num_feature":"9","num_nodes":"83","size_leaf_vector":"1"}},{"base_weights":[-2.3057962E1,-8.426634E3,8.352523E3,-1.3942587E4,-2.9141887E3,1.1485743E4,-7.4256953E3,-1.2317988E4,-1.8696826E4,-1.9215004E2,-1.1151869E4,1.5414282E4,-3.305251E2,-5.253111E3,-1.3781261E4,-1.2216757E4,-1.0998329E3,-9.319088E2,-1.4109531E3,-4.0434948E1,-8.042507E2,-5.541391E2,-1.1021975E3,1.1906886E4,2.0668535E4,-2.8995051E3,3.5539673E3,-5.0892285E3,-9.562666E2,-6.851057E2,-1.1024854E3,-1.190847E4,-6.4017535E2,7.51417E2,-1.0339805E3,1.2127583E4,-4.8790143E2,2.0892021E4,-5.2666167E3,-2.8248716E3,-8.5903094E2,1.8028966E2,-6.227343E2,-4.6746465E3,-2.9353696E2,-6.0587305E2,-5.729016E2,1.0437443E1,7.9529655E1,-4.2566875E1,-5.3535572E1,5.584748E2,7.7505145E2,9.777016E2,1.19391E3,-1.5076392E2,-2.8988104E2,-1.16582054E2,-1.461065E2,-2.4585814E2,-2.0859874E2],"categories":[],"categories_nodes":[],"categories_segments":[],"categories_sizes":[],"default_left":[0,0,0,0,0,0,0,0,0,0,0,0,0,0,0,0,0,0,0,0,0,0,0,0,0,0,0,0,0,0,0,0,0,0,0,0,0,0,0,0,0,0,0,0,0,0,0,0,0,0,0,0,0,0,0,0,0,0,0,0,0],"id":18,"left_children":[1,3,5,7,9,11,13,15,17,19,21,23,25,27,29,31,-1,-1,-1,33,-1,-1,-1,35,37,39,41,43,-1,-1,-1,45,-1,47,49,51,-1,53,55,57,-1,-1,-1,59,-1,-1,-1,-1,-1,-1,-1,-1,-1,-1,-1,-1,-1,-1,-1,-1,-1],"loss_changes":[1.9826706E12,4.2750352E11,6.9753713E11,5.4052127E10,1.5772323E11,5.464228E11,3.2210706E10,4.86631E9,4.725801E8,1.2749707E10,1.0703176E9,1.6255353E11,2.9329146E10,3.8675005E9,8.726118E7,7.8616986E8,0E0,0E0,0E0,4.122513E9,0E0,0E0,0E0,2.5459687E10,2.0599407E10,1.8369546E9,1.0156104E9,5.314601E8,0E0,0E0,0E0,1.826816E8,0E0,1.3275969E9,1.4679552E7,1.6785539E10,0E0,1.3537378E10,1.9578112E7,7.766323E7,0E0,0E0,0E0,1.1748147E8,0E0,0E0,0E0,0E0,0E0,0E0,0E0,0E0,0E0,0E0,0E0,0E0,0E0,0E0,0E0,0E0,0E0],"parents":[2147483647,0,0,1,1,2,2,3,3,4,4,5,5,6,6,7,7,8,8,9,9,10,10,11,11,12,12,13,13,14,14,15,15,19,19,23,23,24,24,25,25,26,26,27,27,31,31,33,33,34,34,35,35,37,37,38,38,39,39,43,43],"right_children":[2,4,6,8,10,12,14,16,18,20,22,24,26,28,30,32,-1,-1,-1,34,-1,-1,-1,36,38,40,42,44,-1,-1,-1,46,-1,48,50,52,-1,54,56,58,-1,-1,-1,60,-1,-1,-1,-1,-1,-1,-1,-1,-1,-1,-1,-1,-1,-1,-1,-1,-1],"split_conditions":[7.010962E-2,-7.9767627E-1,1.5164194E0,1.7235993E0,1.7235993E0,1.7235993E0,1.7235993E0,1.11081085E1,1.11081085E1,1.11081085E1,1.11081085E1,9.378955E-1,9.378955E-1,1.11081085E1,1.11081085E1,1.7237297E0,-1.0998329E3,-9.319088E2,-1.4109531E3,8.4110475E-1,-8.042507E2,-5.541391E2,-1.1021975E3,1.11081085E1,1.11081085E1,1.11081085E1,1.11081085E1,1.7237297E0,-9.562666E2,-6.851057E2,-1.1024854E3,2.2700121E0,-6.4017535E2,2.2700121E0,-6.530453E-1,2.2700121E0,-4.8790143E2,5.67294E-1,1.0825264E0,2.1474059E-1,-8.5903094E2,1.8028966E2,-6.227343E2,2.2700121E0,-2.9353696E2,-6.0587305E2,-5.729016E2,1.0437443E1,7.9529655E1,-4.2566875E1,-5.3535572E1,5.584748E2,7.7505145E2,9.777016E2,1.19391E3,-1.5076392E2,-2.8988104E2,-1.16582054E2,-1.461065E2,-2.4585814E2,-2.0859874E2],"split_indices":[0,0,0,7,7,7,7,8,8,8,8,0,0,8,8,5,0,0,0,4,0,0,0,8,8,8,8,5,0,0,0,3,0,3,0,3,0,6,0,0,0,0,0,3,0,0,0,0,0,0,0,0,0,0,0,0,0,0,0,0,0],"split_type":[0,0,0,0,0,0,0,0,0,0,0,0,0,0,0,0,0,0,0,0,0,0,0,0,0,0,0,0,0,0,0,0,0,0,0,0,0,0,0,0,0,0,0,0,0,0,0,0,0,0,0,0,0,0,0,0,0,0,0,0,0],"sum_hessian":[2.8167E4,1.406E4,1.4107E4,7.027E3,7.033E3,1.177E4,2.337E3,5.24E3,1.787E3,5.287E3,1.746E3,8.833E3,2.937E3,1.743E3,5.94E2,5.188E3,5.2E1,1.779E3,8E0,5.238E3,4.9E1,1.737E3,9E0,5.299E3,3.534E3,1.768E3,1.169E3,1.724E3,1.9E1,5.91E2,3E0,3.415E3,1.773E3,2.915E3,2.323E3,5.246E3,5.3E1,3.504E3,3E1,1.76E3,8E0,1.166E3,3E0,1.131E3,5.93E2,2.315E3,1.1E3,1.771E3,1.144E3,3.93E2,1.93E3,4.089E3,1.157E3,2.425E3,1.079E3,7E0,2.3E1,2.94E2,1.466E3,7.57E2,3.74E2],"tree_param":{"num_deleted":"0","num_feature":"9","num_nodes":"61","size_leaf_vector":"1"}},{"base_weights":[4.382703E1,-2.2621467E3,8.048896E3,-4.964426E3,3.7242484E2,1.0252442E4,2.558238E3,-3.4769526E3,-8.605137E3,2.168314E3,-4.0433137E3,1.0366678E4,-4.4732617E2,2.6760552E3,-5.8084174E2,-1.4188038E3,-4.385412E3,-6.7448604E3,-9.411777E3,2.2654543E3,-1.2139419E4,-3.9265864E3,-8.536214E2,9.435808E3,5.897536E2,1.8149604E3,3.9597393E3,-1.307309E3,-7.137843E2,-4.286537E3,-8.322536E2,-6.5553867E3,-8.35672E2,-9.289046E3,-9.4067474E2,1.1750634E3,2.524257E3,-1.4230547E4,-5.2204205E2,-3.6296243E3,-4.1509688E3,4.8663873E2,8.870063E3,2.3727534E3,7.720755E2,2.1419986E2,1.8237663E2,-4.555808E1,-1.0277471E2,-2.0367195E2,-2.299471E2,-3.1792502E2,-3.456281E2,-4.5518137E2,-4.870355E2,7.076505E1,3.9894287E1,1.4296275E2,1.1510433E2,-4.9693027E2,-8.978911E2,-2.1507039E2,-1.5456573E2,-2.631312E2,-1.9473761E2,3.902683E2,4.5525586E2,9.508321E1,1.4010759E2,3.5636257E1,4.100733E1],"categories":[],"categories_nodes":[],"categories_segments":[],"categories_sizes":[],"default_left":[0,0,0,0,0,0,0,0,0,0,0,0,0,0,0,0,0,0,0,0,0,0,0,0,0,0,0,0,0,0,0,0,0,0,0,0,0,0,0,0,0,0,0,0,0,0,0,0,0,0,0,0,0,0,0,0,0,0,0,0,0,0,0,0,0,0,0,0,0,0,0],"id":19,"left_children":[1,3,5,7,9,11,13,15,17,19,21,23,-1,25,-1,27,29,31,33,35,37,39,-1,41,-1,43,45,47,-1,49,-1,51,-1,53,-1,55,57,59,-1,61,63,-1,65,67,69,-1,-1,-1,-1,-1,-1,-1,-1,-1,-1,-1,-1,-1,-1,-1,-1,-1,-1,-1,-1,-1,-1,-1,-1,-1,-1],"loss_changes":[5.1752976E11,1.5496154E11,7.583397E10,5.8159202E10,8.741516E10,9.905144E9,3.032195E9,1.4259921E10,4.612309E9,1.0918445E10,4.7799214E9,5.8029834E9,0E0,1.9636941E9,0E0,3.332803E9,6.3446876E9,1.677226E9,2.330329E9,2.1936456E9,3.9673856E7,1.9549798E8,0E0,3.6691968E8,0E0,6.200205E8,5.675827E7,6.8545946E8,0E0,3.3090765E8,0E0,2.1446656E7,0E0,9.096397E7,0E0,1.34336E8,4.6156186E8,1.5746637E8,0E0,4.8140698E8,4.901929E8,0E0,1.6417587E8,1.3546138E8,4.82496E5,0E0,0E0,0E0,0E0,0E0,0E0,0E0,0E0,0E0,0E0,0E0,0E0,0E0,0E0,0E0,0E0,0E0,0E0,0E0,0E0,0E0,0E0,0E0,0E0,0E0,0E0],"parents":[2147483647,0,0,1,1,2,2,3,3,4,4,5,5,6,6,7,7,8,8,9,9,10,10,11,11,13,13,15,15,16,16,17,17,18,18,19,19,20,20,21,21,23,23,25,25,26,26,27,27,29,29,31,31,33,33,35,35,36,36,37,37,39,39,40,40,42,42,43,43,44,44],"right_children":[2,4,6,8,10,12,14,16,18,20,22,24,-1,26,-1,28,30,32,34,36,38,40,-1,42,-1,44,46,48,-1,50,-1,52,-1,54,-1,56,58,60,-1,62,64,-1,66,68,70,-1,-1,-1,-1,-1,-1,-1,-1,-1,-1,-1,-1,-1,-1,-1,-1,-1,-1,-1,-1,-1,-1,-1,-1,-1,-1],"split_conditions":[1.1429956E0,-1.7289384E-1,9.948937E-1,9.948937E-1,9.948937E-1,1.11081085E1,1.11081085E1,8.4110475E-1,8.4110475E-1,1.11081085E1,1.11081085E1,2.2700121E0,-4.4732617E2,2.2700121E0,-5.8084174E2,1.11081085E1,1.11081085E1,1.11081085E1,1.11081085E1,-7.310609E-1,-5.033196E-1,-1.5155818E-1,-8.536214E2,1.58695E0,5.897536E2,1.58695E0,-1.0208123E0,1.58695E0,-7.137843E2,-3.915167E-3,-8.322536E2,1.58695E0,-8.35672E2,7.176959E-1,-9.4067474E2,-3.915167E-3,-5.033196E-1,-1.002724E0,-5.2204205E2,-7.310609E-1,1.3819318E-1,4.8663873E2,-1.002724E0,-1.3105636E0,1.4942982E0,2.1419986E2,1.8237663E2,-4.555808E1,-1.0277471E2,-2.0367195E2,-2.299471E2,-3.1792502E2,-3.456281E2,-4.5518137E2,-4.870355E2,7.076505E1,3.9894287E1,1.4296275E2,1.1510433E2,-4.9693027E2,-8.978911E2,-2.1507039E2,-1.5456573E2,-2.631312E2,-1.9473761E2,3.902683E2,4.5525586E2,9.508321E1,1.4010759E2,3.5636257E1,4.100733E1],"split_indices":[6,6,1,1,1,8,8,4,4,8,8,3,0,3,0,8,8,8,8,2,1,2,0,2,0,2,2,2,0,1,0,2,0,2,0,1,1,1,0,2,2,0,1,2,1,0,0,0,0,0,0,0,0,0,0,0,0,0,0,0,0,0,0,0,0,0,0,0,0,0,0],"split_type":[0,0,0,0,0,0,0,0,0,0,0,0,0,0,0,0,0,0,0,0,0,0,0,0,0,0,0,0,0,0,0,0,0,0,0,0,0,0,0,0,0,0,0,0,0,0,0,0,0,0,0,0,0,0,0,0,0,0,0,0,0,0,0,0,0,0,0,0,0,0,0],"sum_hessian":[2.8034E4,2.1765E4,6.269E3,1.0744E4,1.1021E4,4.473E3,1.796E3,7.629E3,3.115E3,7.835E3,3.186E3,4.447E3,2.6E1,1.782E3,1.4E1,2.337E3,5.292E3,9.45E2,2.17E3,7.783E3,5.2E1,3.159E3,2.7E1,2.697E3,1.75E3,1.068E3,7.14E2,2.318E3,1.9E1,5.251E3,4.1E1,9.29E2,1.6E1,2.144E3,2.6E1,1.494E3,6.289E3,2E1,3.2E1,1.367E3,1.792E3,1.758E3,9.39E2,6.95E2,3.73E2,3.44E2,3.7E2,1.517E3,8.01E2,3.13E3,2.121E3,6.11E2,3.18E2,1.535E3,6.09E2,9.11E2,5.83E2,2.503E3,3.786E3,1.1E1,9E0,6.05E2,7.62E2,3.32E2,1.46E3,1.76E2,7.63E2,3.34E2,3.61E2,1.74E2,1.99E2],"tree_param":{"num_deleted":"0","num_feature":"9","num_nodes":"71","size_leaf_vector":"1"}},{"base_weights":[-1.2665944E1,-7.9502764E3,7.9096416E3,-1.2950979E4,-2.9555874E3,1.0858237E4,-6.960141E3,-1.1994998E4,-1.5289398E4,2.4128874E2,-5.1738706E3,1.5554694E4,7.4925737E3,-5.6882256E3,-1.0139982E4,-1.0579398E4,-1.2987097E4,-1.4014253E4,-1.6145154E4,1.8318444E3,-3.9849468E3,-3.782218E3,-8.665171E3,1.8041654E4,9.173454E3,4.073906E3,1.2631646E4,-3.704818E3,-7.0328677E3,-8.3714375E3,-1.1332246E4,-1.1119033E4,-4.8654977E2,-1.2920239E4,-1.0413041E3,-7.261363E2,-6.6056323E2,-8.017866E2,-1.1633749E3,1.8975822E3,-5.9926825E2,-3.8748748E3,-7.088786E2,-3.6912898E3,-7.364619E2,-4.257963E2,-9.169621E2,1.4914785E4,2.2663914E4,6.6340625E3,1.2947395E4,6.053254E3,-6.4390765E2,1.5108893E4,6.7509487E3,-4.321869E3,-1.3296251E2,-3.4778708E2,-7.320529E2,-4.484383E2,-3.75683E2,-5.569937E2,-9.586808E2,-5.5224835E2,-8.907588E2,-6.195988E2,-6.5221765E2,7.112058E1,1.3134587E2,-2.1005376E2,-1.6781462E2,-1.6214964E2,-1.9007286E2,7.522415E2,-2.7497165E2,9.778639E2,1.2651981E3,3.368473E2,-4.231901E2,5.1250867E2,7.5323114E2,3.0939963E2,-4.4926416E2,-2.3422235E1,-6.4648627E2,7.614734E2,-1.8425449E2,3.452129E2,-3.8133188E2,-2.1317859E2,-5.511719E2],"categories":[],"categories_nodes":[],"categories_segments":[],"categories_sizes":[],"default_left":[0,0,0,0,0,0,0,0,0,0,0,0,0,0,0,0,0,0,0,0,0,0,0,0,0,0,0,0,0,0,0,0,0,0,0,0,0,0,0,0,0,0,0,0,0,0,0,0,0,0,0,0,0,0,0,0,0,0,0,0,0,0,0,0,0,0,0,0,0,0,0,0,0,0,0,0,0,0,0,0,0,0,0,0,0,0,0,0,0,0,0],"id":20,"left_children":[1,3,5,7,9,11,13,15,17,19,21,23,25,27,29,31,33,35,37,39,41,43,45,47,49,51,53,55,57,59,61,63,-1,65,-1,-1,-1,-1,-1,67,-1,69,-1,71,-1,-1,-1,73,75,77,79,81,83,85,87,89,-1,-1,-1,-1,-1,-1,-1,-1,-1,-1,-1,-1,-1,-1,-1,-1,-1,-1,-1,-1,-1,-1,-1,-1,-1,-1,-1,-1,-1,-1,-1,-1,-1,-1,-1],"loss_changes":[1.7595626E12,3.4906446E11,6.140808E11,1.5429272E10,4.959974E10,1.8461609E11,9.317442E9,6.8312105E9,1.9812188E9,1.9272733E10,2.0028703E10,7.724781E10,1.1959193E11,4.395786E9,1.298903E9,8.303575E8,1.2576031E9,1.429504E8,5.652152E8,1.9147607E9,8.246497E8,2.886021E9,1.5417508E9,5.037831E10,1.3043507E10,3.820645E10,3.9522796E10,4.2206003E8,4.7732326E8,7.095091E7,3.7772493E8,4.2119987E8,0E0,2.7918336E7,0E0,0E0,0E0,0E0,0E0,7.150259E8,0E0,1.1733914E8,0E0,1.3242778E8,0E0,0E0,0E0,5.6471716E9,1.1102192E10,1.3322977E9,2.9864428E9,5.8953236E9,2.6023473E9,4.3911414E9,1.8336604E9,1.1747891E8,0E0,0E0,0E0,0E0,0E0,0E0,0E0,0E0,0E0,0E0,0E0,0E0,0E0,0E0,0E0,0E0,0E0,0E0,0E0,0E0,0E0,0E0,0E0,0E0,0E0,0E0,0E0,0E0,0E0,0E0,0E0,0E0,0E0,0E0,0E0],"parents":[2147483647,0,0,1,1,2,2,3,3,4,4,5,5,6,6,7,7,8,8,9,9,10,10,11,11,12,12,13,13,14,14,15,15,16,16,17,17,18,18,19,19,20,20,21,21,22,22,23,23,24,24,25,25,26,26,27,27,28,28,29,29,30,30,31,31,33,33,39,39,41,41,43,43,47,47,48,48,49,49,50,50,51,51,52,52,53,53,54,54,55,55],"right_children":[2,4,6,8,10,12,14,16,18,20,22,24,26,28,30,32,34,36,38,40,42,44,46,48,50,52,54,56,58,60,62,64,-1,66,-1,-1,-1,-1,-1,68,-1,70,-1,72,-1,-1,-1,74,76,78,80,82,84,86,88,90,-1,-1,-1,-1,-1,-1,-1,-1,-1,-1,-1,-1,-1,-1,-1,-1,-1,-1,-1,-1,-1,-1,-1,-1,-1,-1,-1,-1,-1,-1,-1,-1,-1,-1,-1],"split_conditions":[7.010962E-2,-7.9767627E-1,1.5164194E0,9.948937E-1,8.4110475E-1,8.4110475E-1,9.948937E-1,8.4110475E-1,8.4110475E-1,9.948937E-1,9.948937E-1,9.948937E-1,9.378955E-1,8.4110475E-1,8.4110475E-1,2.2700121E0,1.11081085E1,2.2700121E0,1.11081085E1,1.11081085E1,1.11081085E1,1.11081085E1,1.11081085E1,9.378955E-1,9.378955E-1,9.948937E-1,9.948937E-1,2.2700121E0,1.11081085E1,2.2700121E0,1.11081085E1,1.11081085E1,-4.8654977E2,-1.002724E0,-1.0413041E3,-7.261363E2,-6.6056323E2,-8.017866E2,-1.1633749E3,2.2700121E0,-5.9926825E2,2.2700121E0,-7.088786E2,-1.002724E0,-7.364619E2,-4.257963E2,-9.169621E2,1.11081085E1,-7.89717E-1,1.11081085E1,-7.89717E-1,1.11081085E1,1.11081085E1,1.11081085E1,1.11081085E1,1.11081085E1,-1.3296251E2,-3.4778708E2,-7.320529E2,-4.484383E2,-3.75683E2,-5.569937E2,-9.586808E2,-5.5224835E2,-8.907588E2,-6.195988E2,-6.5221765E2,7.112058E1,1.3134587E2,-2.1005376E2,-1.6781462E2,-1.6214964E2,-1.9007286E2,7.522415E2,-2.7497165E2,9.778639E2,1.2651981E3,3.368473E2,-4.231901E2,5.1250867E2,7.5323114E2,3.0939963E2,-4.4926416E2,-2.3422235E1,-6.4648627E2,7.614734E2,-1.8425449E2,3.452129E2,-3.8133188E2,-2.1317859E2,-5.511719E2],"split_indices":[0,0,0,1,4,4,1,4,4,1,1,1,0,4,4,3,8,3,8,8,8,8,8,0,0,1,1,3,8,3,8,8,0,1,0,0,0,0,0,3,0,3,0,1,0,0,0,8,6,8,6,8,8,8,8,8,0,0,0,0,0,0,0,0,0,0,0,0,0,0,0,0,0,0,0,0,0,0,0,0,0,0,0,0,0,0,0,0,0,0,0],"split_type":[0,0,0,0,0,0,0,0,0,0,0,0,0,0,0,0,0,0,0,0,0,0,0,0,0,0,0,0,0,0,0,0,0,0,0,0,0,0,0,0,0,0,0,0,0,0,0,0,0,0,0,0,0,0,0,0,0,0,0,0,0,0,0,0,0,0,0,0,0,0,0,0,0,0,0,0,0,0,0,0,0,0,0,0,0,0,0,0,0,0,0],"sum_hessian":[2.7979E4,1.3976E4,1.4003E4,6.983E3,6.993E3,1.1686E4,2.317E3,4.961E3,2.022E3,2.865E3,4.128E3,4.877E3,6.809E3,1.657E3,6.6E2,2.049E3,2.912E3,8.19E2,1.203E3,2.082E3,7.83E2,2.953E3,1.175E3,3.508E3,1.369E3,4.09E3,2.719E3,6.71E2,9.86E2,2.69E2,3.91E2,1.245E3,8.04E2,2.89E3,2.2E1,4.91E2,3.28E2,1.188E3,1.5E1,2.073E3,9E0,7.76E2,7E0,2.93E3,2.3E1,1.159E3,1.6E1,2.095E3,1.413E3,8.2E2,5.49E2,2.881E3,1.209E3,1.912E3,8.07E2,4.2E2,2.51E2,9.78E2,8E0,1.53E2,1.16E2,3.84E2,7E0,1.234E3,1.1E1,5.69E2,2.321E3,1.257E3,8.16E2,4.72E2,3.04E2,5.84E2,2.346E3,2.082E3,1.3E1,6.53E2,7.6E2,8.15E2,5E0,2.44E2,3.05E2,2.856E3,2.5E1,1.193E3,1.6E1,1.9E3,1.2E1,7.99E2,8E0,4.18E2,2E0],"tree_param":{"num_deleted":"0","num_feature":"9","num_nodes":"91","size_leaf_vector":"1"}},{"base_weights":[-4.1586594E1,-7.6276943E3,7.5407324E3,-1.2371586E4,-2.8562046E3,1.0352128E4,-6.6310293E3,-1.0848373E4,-1.6831893E4,-3.5423956E2,-1.0356164E4,1.401349E4,-5.4581494E2,-4.537505E3,-1.2541376E4,-9.881301E3,-1.3181589E4,-8.100494E2,-9.155595E2,1.2069642E3,-4.184928E3,-4.6649924E2,-6.422763E2,1.075067E4,1.8849564E4,-2.921299E3,2.969801E3,-3.2197395E3,-7.739639E3,-5.797856E2,-7.2676904E2,-9.549055E3,-5.2550244E2,-6.4392737E2,-6.882377E2,8.7811224E2,2.4061763E3,-4.442069E3,-3.2251946E3,1.2890001E4,5.3678E3,2.1532123E4,1.2263837E4,-1.4394303E3,-6.576269E3,4.752628E3,-1.2849363E3,-2.7686091E3,-4.1162783E3,-3.6712067E2,-4.2496115E2,-4.4587833E2,-4.8318326E2,2.8706842E1,6.3613922E1,1.3569502E2,1.0695448E2,-2.296845E2,-2.0183495E2,-1.4835515E2,-1.7437274E2,6.0134216E2,7.9932996E2,2.3090813E2,3.9621207E2,1.0193624E3,1.2035651E3,5.596977E2,7.3481537E2,-8.486876E1,-6.466125E1,-3.5671677E2,-3.092552E2,2.4201314E2,2.0973918E2,-8.5762886E1,-4.956429E1,-1.0424749E2,-1.4449834E2,-1.9620879E2,-2.2204002E2],"categories":[],"categories_nodes":[],"categories_segments":[],"categories_sizes":[],"default_left":[0,0,0,0,0,0,0,0,0,0,0,0,0,0,0,0,0,0,0,0,0,0,0,0,0,0,0,0,0,0,0,0,0,0,0,0,0,0,0,0,0,0,0,0,0,0,0,0,0,0,0,0,0,0,0,0,0,0,0,0,0,0,0,0,0,0,0,0,0,0,0,0,0,0,0,0,0,0,0,0,0],"id":21,"left_children":[1,3,5,7,9,11,13,15,17,19,21,23,25,27,29,31,33,-1,-1,35,37,-1,-1,39,41,43,45,47,49,-1,-1,51,-1,-1,-1,53,55,57,59,61,63,65,67,69,71,73,75,77,79,-1,-1,-1,-1,-1,-1,-1,-1,-1,-1,-1,-1,-1,-1,-1,-1,-1,-1,-1,-1,-1,-1,-1,-1,-1,-1,-1,-1,-1,-1,-1,-1],"loss_changes":[1.6107408E12,3.1681544E11,5.5806185E11,4.750449E10,1.309735E11,4.663344E11,2.8637135E10,1.1681923E10,1.3692436E9,3.1312894E10,4.3403674E9,1.37834E11,2.4561471E10,7.2075796E9,9.741599E8,6.736118E8,9.32905E7,0E0,0E0,1.4649185E9,3.5980083E8,0E0,0E0,6.0112175E10,6.19753E10,9.495939E9,9.002461E9,4.804229E8,8.815616E7,0E0,0E0,9.003008E7,0E0,0E0,0E0,3.492544E8,5.9945984E7,5.4784E7,1.1582976E7,9.801433E9,2.8150129E9,6.782714E9,2.4952013E9,4.4945664E7,6.633267E7,2.0566016E7,4.2653504E7,6.134323E7,7.822336E6,0E0,0E0,0E0,0E0,0E0,0E0,0E0,0E0,0E0,0E0,0E0,0E0,0E0,0E0,0E0,0E0,0E0,0E0,0E0,0E0,0E0,0E0,0E0,0E0,0E0,0E0,0E0,0E0,0E0,0E0,0E0,0E0],"parents":[2147483647,0,0,1,1,2,2,3,3,4,4,5,5,6,6,7,7,8,8,9,9,10,10,11,11,12,12,13,13,14,14,15,15,16,16,19,19,20,20,23,23,24,24,25,25,26,26,27,27,28,28,31,31,35,35,36,36,37,37,38,38,39,39,40,40,41,41,42,42,43,43,44,44,45,45,46,46,47,47,48,48],"right_children":[2,4,6,8,10,12,14,16,18,20,22,24,26,28,30,32,34,-1,-1,36,38,-1,-1,40,42,44,46,48,50,-1,-1,52,-1,-1,-1,54,56,58,60,62,64,66,68,70,72,74,76,78,80,-1,-1,-1,-1,-1,-1,-1,-1,-1,-1,-1,-1,-1,-1,-1,-1,-1,-1,-1,-1,-1,-1,-1,-1,-1,-1,-1,-1,-1,-1,-1,-1],"split_conditions":[7.010962E-2,-7.9767627E-1,1.5164194E0,1.7235993E0,1.7235993E0,1.7235993E0,1.7235993E0,9.948937E-1,9.948937E-1,9.948937E-1,9.948937E-1,9.378955E-1,9.378955E-1,9.948937E-1,9.948937E-1,1.7237297E0,1.7237297E0,-8.100494E2,-9.155595E2,2.2700121E0,2.2700121E0,-4.6649924E2,-6.422763E2,9.948937E-1,9.948937E-1,9.948937E-1,9.948937E-1,1.7237297E0,1.7237297E0,-5.797856E2,-7.2676904E2,-1.0208123E0,-5.2550244E2,-6.4392737E2,-6.882377E2,1.7237297E0,-1.0208123E0,1.2971987E0,-1.0208123E0,2.2700121E0,2.2700121E0,5.67294E-1,5.67294E-1,-5.033196E-1,1.3819318E-1,1.0074472E0,1.3819318E-1,-1.0208123E0,1.58695E0,-3.6712067E2,-4.2496115E2,-4.4587833E2,-4.8318326E2,2.8706842E1,6.3613922E1,1.3569502E2,1.0695448E2,-2.296845E2,-2.0183495E2,-1.4835515E2,-1.7437274E2,6.0134216E2,7.9932996E2,2.3090813E2,3.9621207E2,1.0193624E3,1.2035651E3,5.596977E2,7.3481537E2,-8.486876E1,-6.466125E1,-3.5671677E2,-3.092552E2,2.4201314E2,2.0973918E2,-8.5762886E1,-4.956429E1,-1.0424749E2,-1.4449834E2,-1.9620879E2,-2.2204002E2],"split_indices":[0,0,0,7,7,7,7,1,1,1,1,0,0,1,1,5,5,0,0,3,3,0,0,1,1,1,1,5,5,0,0,2,0,0,0,5,2,2,2,3,3,6,6,1,2,2,2,2,2,0,0,0,0,0,0,0,0,0,0,0,0,0,0,0,0,0,0,0,0,0,0,0,0,0,0,0,0,0,0,0,0],"split_type":[0,0,0,0,0,0,0,0,0,0,0,0,0,0,0,0,0,0,0,0,0,0,0,0,0,0,0,0,0,0,0,0,0,0,0,0,0,0,0,0,0,0,0,0,0,0,0,0,0,0,0,0,0,0,0,0,0,0,0,0,0,0,0,0,0,0,0,0,0,0,0,0,0,0,0,0,0,0,0,0,0],"sum_hessian":[2.8001E4,1.3997E4,1.4004E4,7.018E3,6.979E3,1.1686E4,2.318E3,5.234E3,1.784E3,5.234E3,1.745E3,8.747E3,2.939E3,1.713E3,6.05E2,3.704E3,1.53E3,1.259E3,5.25E2,3.719E3,1.515E3,1.239E3,5.06E2,5.225E3,3.522E3,1.754E3,1.185E3,1.215E3,4.98E2,4.15E2,1.9E2,2.434E3,1.27E3,1.022E3,5.08E2,2.92E3,7.99E2,1.192E3,3.23E2,3.738E3,1.487E3,2.501E3,1.021E3,1.249E3,5.05E2,8.35E2,3.5E2,8.11E2,4.04E2,3.34E2,1.64E2,3.86E2,2.048E3,1.65E3,1.27E3,3.67E2,4.32E2,8.6E2,3.32E2,1.69E2,1.54E2,2.927E3,8.11E2,1.152E3,3.35E2,1.73E3,7.71E2,7.13E2,3.08E2,4.48E2,8.01E2,2.01E2,3.04E2,7.15E2,1.2E2,1.4E2,2.1E2,1.25E2,6.86E2,2.62E2,1.42E2],"tree_param":{"num_deleted":"0","num_feature":"9","num_nodes":"81","size_leaf_vector":"1"}},{"base_weights":[4.068567E0,-7.1481016E3,7.1705E3,-1.1733935E4,-2.6304778E3,9.801083E3,-6.200844E3,-1.0320405E4,-1.5928449E4,-2.3571115E2,-9.864903E3,1.3285326E4,-5.876017E2,-4.258886E3,-1.1864526E4,-9.428491E3,-1.2573064E4,-7.654426E2,-8.7011536E2,1.223956E3,-3.9710146E3,-4.4411685E2,-6.098266E2,1.0125135E4,1.7973164E4,-2.8885098E3,2.8187783E3,-3.045297E3,-7.2670415E3,-5.483735E2,-6.9620184E2,-9.089535E3,-5.0358032E2,-6.126934E2,-6.601972E2,8.4664594E2,2.5148079E3,-4.2178467E3,-3.0643735E3,1.2140311E4,5.0208003E3,2.0420158E4,1.170988E4,-1.4802988E3,-6.2437046E3,4.449312E3,-1.0867397E3,-2.6482117E3,-3.794719E3,-3.4182437E2,-4.0201657E2,-4.2698032E2,-4.593945E2,6.407797E1,2.5762394E1,1.467673E2,1.2134338E2,-2.1932307E2,